	-0.27166325	0.2708764	-0.099670775	0.072063446	-0.08436206	0.08097196	-0.047493942	0.08977625	0.24515058	-0.16435938	0.07175886	-0.17592584	-0.28970528	0.08892374	0.061375078	-0.15951817	0.0009486275	0.04162459	-0.017107338	-0.08947676	-0.09778899	-0.17745155	0.520665	-0.34270284	0.3377703	0.12865625	-0.06054344	-0.0007701466	0.10983645	0.51630336	0.5631496	-0.2320193	-0.20943868	0.27899346	-0.07548487	-0.11880179	-0.073988296	0.12529941	0.66689914	-0.3597817	0.24013695	0.2196686	0.20787019	0.023624355	0.14954388	0.13193853	0.43457595	-0.38574782	0.23543039	0.1992714	0.13217208	-0.20625603	-0.19198997	0.31597602	-0.14920726	0.16416258	-0.34460315	-0.075768344	-0.26432857	-0.11471224	0.0039785854	0.015405981	0.26222354	0.5126334	-0.078365475	-0.044758305	0.33833262	-0.09381645	-0.078690514	-0.10417392	-0.1547253	-0.22468203	-0.0577335	0.2815585	-0.17188191	0.27092138	0.29519966	0.10577202	0.30311278	0.112737626	-0.09819779	0.27002504	0.06408862	0.021263683	-0.11717754	-0.035901614	0.106557466	-0.26943663	-0.12355301	-0.079525016	0.08077152	-0.08958573	-0.16046603	0.225804	0.3526513	0.06633954	-0.13577312	-0.034552738	0.12691438	0.12561433	0.12749045	0.09727055	-0.37835598	-0.10525853	-0.007756936	-0.39084205	0.01740172	0.053531718	-0.11266817	-0.0066201175	-0.028177693	0.12180783	-0.1835015	0.03237379	-0.11772067	0.12688483	0.008454074	-0.1413098	-0.30094472	0.033561442	-0.16860841	0.29832318	-0.06933109	0.1561703	-0.08357415	0.40157226	0.19718714	0.08424515	-0.2716639	-0.1651963	-0.23848069	0.28156364	0.015640207	-0.06438548	-0.26677814	-0.040165238	-0.32634228	0.105570905	0.40335393	-0.26015967	-0.3624577	-0.05346121	0.15547681	-0.06549326	-0.095406406	0.060497295	-0.018547604	-0.29723674	0.23284175	-0.06504063	-0.29511166	-0.27681175	0.2664856	0.015828544	-0.055146452	-0.34774834	-0.17560919	-0.035049558	-0.32810393	-0.30348825	-0.082073756	0.45687506	-0.081658565	-0.32243457	-0.06693841	0.07074286	-0.0376272	-0.15591052	0.4287981	0.37807837	-0.0072003338	-0.17491834	0.018284587	-0.19590768	-0.20640214	-0.3048637	0.047424786	0.14853199	0.11371518	-0.14576767	0.06829162	-0.3319783	-0.2960949	-0.22535847	0.40231574	-0.07729319	-0.1414103	-0.031239757	-0.088009104	-0.058884107	-0.32208377	-0.5370785	0.036152493	0.01319468	0.08617686	-0.087984696	-0.1264186	0.06575891	-0.028494908	-0.07048807	-0.10860889	-0.2622693	0.19180913	0.01887326	-0.029247869	0.069742575	-0.03944133	0.16432795	-0.0055185813	-0.21777189	0.35962024	-0.09553678	-0.29388064	0.1857708	-0.029358473	-0.07589402	-0.24192569	-0.16601834	-0.14250892	0.28425965	0.115974694	0.08374334	-0.06754747	0.11183377	-0.3368679	0.14110264	0.35328707	-0.015821027	0.23502569	-0.11026934	-0.045765076	-0.05851749	-0.07996177	0.093256176	0.041556623	0.03518245	-0.3610717	0.14119872	-0.17212051	0.41381982	-0.040881913	0.067580104	0.03444388	-0.103407055	-0.03682681	-0.12904504	0.44324762	-0.08291546	-0.1967214	-0.33954987	-0.07567921	-0.017930767	-0.16789113	-0.11388977	0.11941842	-0.06166136	0.29472795	-0.38579598	0.056950986	-0.2510406	0.059835114	0.16966458	-0.0057380404	0.052857615	-0.08719816	0.04081345	-0.20761241	0.11021826	-0.14938428	-0.19110441	0.069627605	0.17548208	0.2308391	-0.3980903	0.33518657	-0.047374412	0.1070377	-0.0601628	0.20444675	0.29577944	-0.49837407	-0.0010000241	0.05264642	-0.009049025	0.22819449	-0.0040222895	0.1491414	0.2560746	0.026663272	-0.26993054	0.038354974	-0.14006738	0.1792969	0.1782227	0.048014436	0.23422839	-0.08162915	-0.2238367	0.053045057	-0.06479209	0.40389663	-0.24077842	-0.011434519	0.0025592295	0.082484476	0.22705625	0.28681543	0.2919578	-0.06343204	-0.10387708	-0.17860198	0.42211702	0.19889008	0.2043385	-0.0065031704	0.14052318	-0.106552675	-0.06391293	-0.2774692	-0.194698	-0.12043254	0.23260553	-0.16229044	-0.03590919	0.17738453	0.00011970254	-0.03167612	0.48792294	0.29839212	0.07005746	-0.31503972	-0.0023622627	0.36009482	-0.13533121	-0.23385131	-0.2356651	-0.13420017	4.5771758e-05	0.05902648	-0.067185335	-0.13870741	-0.2611768	0.36134633	0.15863654	0.02991281	-0.27250153	0.27148846	0.07634642	0.20779374	0.119727984	-0.18934284	-0.18115343	0.19751859	-0.30265307	-0.068788394	0.022954496	-0.09602035	0.08699068	-0.16656646	0.27622363	0.20036638	-0.049793713	0.22075513	0.2154415	-0.06649683	-0.32293728	-0.25536147	0.1840911	0.061983068	-0.03710635	0.07522138	0.0976285	-0.07446757	-0.12539373	-0.15839128	0.1254259	0.24139911	0.14762247	0.06547535	0.21642637	-0.04139931	-0.34553146	-0.079682976	0.32644483	0.20056903	-0.13570146	-0.19722106	0.18858315	0.06502598	0.25693646	0.08751133	-0.1354951	0.03234666	0.05385653	0.016172968	-0.29442343	0.19508141	0.0020714542	0.10892469	-0.1756556	0.18218282	-0.33376637	0.1256157	0.08554386	-0.045468677	0.019742317	0.21028784	0.0032790785	-0.37128907	0.0030208824	-0.021332093	0.027497804	0.09860661	0.021136457	-0.34770858	0.14498304	-0.21098588	-0.16384016	0.061907876	-0.29593626	0.16520171	0.16978875	-0.09838376	0.06540933	-0.24852744	-0.15003729	-0.40615317	0.10718386	0.21401693	-0.21121946	-0.26822966	0.112221606	34.554047	1.3766541	-66.691795	40.574184	0.6858369	6.9651327	-0.22402918	-0.042321913	0.5934362	-15.285161	12.683285	-16.851202	-7.082639	5.313628	1.8015779	1.1804568	1888.3619	988.83813	9920.254	5184.7764	363.62244	365.67108	260.34436	1072.7078	1267.018	1293.8086	332.63794	388.7951	599.018	919.5111	2047.8691	784.5014	0.7511769	0.9740715	0.4286238	0.8035125	0.69446427	0.5915346	0.75112945	1.035981	1.2947525	0.8174059	0.928535	0.5138672	0.6433391	1.0671718	1.0969377	1.0198784	-0.3245775	0.2211868	-0.34966457	0.007870843	-0.19688709	-0.07665858	0.010684608	0.078581065	0.2866778	0.42070204	-0.46618757	-0.18074635	-0.10652085	-0.6129082	0.112638764	0.00241366	0.026988909	0.06966853	0.11266194	0.0072816485	-0.1213714	-0.027088378	0.010339155	-0.060073514	-0.05874417	-0.09072459	-0.021245006	-0.13946393	0.020597734	-0.02411709	0.06897317	-0.13465202	-0.12006256	0.11129614	-0.023202572	0.089984916	-0.054037824	-0.041210733	0.06459937	-0.037938215	-0.041061793	-0.005658826	0.03884213	0.06470492	-0.0141658215	0.06445461	0.04130032	-0.108672164	-0.022889517	0.035881698	0.020493181	-0.0071925446	-0.15986556	-0.1961819	0.054754198	-0.050677	-0.22708543	0.02460257	-0.023457909	-0.01382287	0.084375404	0.0008542451	-0.028954534	0.10936057	-0.008329657	0.09121478	0.039320208	-0.109113365	-0.08297123	-0.15524738	-0.022757899	-3.994963e-05	-0.08768268	-0.07276471	-0.21900523	0.13010944	-0.056108408	0.002985229	-0.075165205	0.04768018	-0.0525892	-0.12293587	-0.044069868	0.084720306	-0.03824485	-0.03868053	-0.11084455	-0.044940326	0.044471793	0.15310146	0.02870101	0.025680989	0.028928233	0.060374472	0.0847787	-0.039371293	-0.047190342	-0.039693102	-0.03606989	-0.0857351	-0.0108967945	0.122351915	0.084081575	0.07191148	-0.007836147	0.026686221	0.0605005	-0.07752544	0.114999525	-0.11919803	-0.033902567	0.02871791	0.09284564	0.00044377352	0.03784734	-0.13227646	0.038458545	0.094989896	0.08565561	-0.12338102	-0.04374116	-0.033229172	0.04485664	-0.045434635	0.13520803	0.051980812	0.05510342	0.10317962	-0.050058085	0.113852024	0.074483246	0.0012236302	0.049300626	-0.10348661	0.038424425	0.0017163176	-0.0307029	0.13468939	0.043002103	0.08126061	0.00327641	0.011529043	0.020321757	0.02566027	0.027602203	0.028965795	-0.05386489	-0.011345428	-0.037986543	0.107452795	-0.016732894	0.01117612	-0.049654204	-0.0012821484	-0.06764831	-0.14412545	-0.0432813	-0.058224346	0.06409963	0.05997664	0.055352688	-0.033934347	-0.03782183	0.04147816	0.029743783	-0.0024331037	-0.02960319	0.0030392879	-0.004581886	-0.05847518	0.012906301	-0.069376744	-0.017119154	0.13225539	0.0064169765	-0.10851227	0.071025215	-0.09930825	0.082734376	-0.0273673	-0.062033653	-0.042165227	0.0017785806	0.04029679	-0.09298061	0.026485456	0.008298038	-0.07525453	0.02652821	0.008929297	0.052055415	-0.055132814	0.024213765	-0.040657442	-0.1358025	0.08883992	-0.15718412	-0.00028190948	0.11865252	0.05231691	0.056984432	0.058841698	-0.03412455	0.11660563	-0.12348771	0.029127572	-0.059821505	0.0054198317	0.031708654	-0.0768821	-0.13889605	-0.06950838	0.007557342	0.09716257	0.03925958	-0.047688752	0.034417965	0.23057494	0.0048759608	0.045701295	0.069087185	-0.23156738	0.005432018	0.16776198	0.027259894	0.09359097	-0.09698647	-0.15161274	-0.26311922	0.105922066	-0.034477282	-0.012686315	0.054540183	-0.008038748	-0.054562353	-0.07282625	0.0979751	-0.07887576	0.00044701368	-0.007260833	-0.013877945	-0.12052696	-0.21493618	0.024722544	-0.042321194	0.063551426	-0.13457483	0.055405438	0.219345	0.10766123	0.007932658	0.07489403	0.14588453	-0.13472578	-0.16073523	-0.0039502853	0.12745611	0.039827924	0.012347489	-0.049164347	-0.20280784	-0.025693992	0.17682554	-0.037921954	0.018066479	-0.010206338	0.11429308	-0.043796655	0.063905865	0.053851455	0.079708785	-0.03158144	0.070650525	-0.017188042	-0.08204763	0.0021561468	-0.29394022	-0.22363661	0.027238034	0.02441806	-0.08726453	0.1436118	-0.07197357	-0.015618372	0.07690318	0.075443886	0.0062309294	0.021746939	0.09825781	-0.045921702	0.10358523	-0.15497285	0.04432736	-0.005428515	-0.06662677	-0.041622788	0.041154955	-0.09574793	-0.2183641	-0.06796138	0.16045687	-0.02077758	-0.1809108	-0.21348561	-0.16019468	-0.026272038	0.071531296	0.11596149	0.12016895	-0.118766814	-0.20118576	0.12517717	-0.15420152	0.16666886	0.041379035	0.11334082	0.16199732	-0.0029082298	-0.17258865	0.26119012	0.079288594	0.03144142	-0.036184564	-0.09280255	-0.039424043	-0.061846387	-0.095451996	0.061113276	-0.19326645	0.04784404	-0.116862305	-0.02092615	0.09922423	0.027871167	0.0012744775	-0.08461526	0.11181265	-0.030384045	0.0984854	0.069784746	-0.09196169	0.008174734	0.08512724	0.10503235	-0.08151171	0.23760742	-0.0111395605	-0.21168083	-0.07873315	-0.066591576	0.12139181	-0.012997368	-0.060362846	0.06961954	0.011704539	-0.03453158	-0.099577844	0.04556911	0.044969082	0.09226297	0.07198292	0.083685815	-0.05975569	0.06556537	-0.09150232	0.062364865	0.016606092	0.011819283	-0.024040185	-0.05384799	0.10925805	-0.053342007	0.065789655	0.022433398	0.040349435	0.02709489	0.0056633023	0.07535784	-0.033880107	0.15501975	0.0051301797	0.0440453	-0.011726154	0.020268155	0.09496037	-0.031691223	-0.022238342	-0.05677453	-0.0542965	-0.034865033	-0.07904216	0.10514573	-0.02354432	-0.097259946	-0.066301614	0.063401446	-0.013985139	0.0141243525	-0.16219372	0.05864054	-0.0037466602	0.030845799	-0.030627398	0.15384234	0.050311357	-0.016363502	-0.034881257	-0.054243557	-0.105379015	-0.07530566	0.04238562	-0.11693809	0.024484336	0.019855294	0.06263693	0.10639419	-0.1651878	0.06976696	0.020071412	-0.002915943	0.04228087	0.019869566	-0.02027687	-0.026285654	0.07148661	-0.1522971	-0.1658719	0.047177054	-0.10426642	0.13201377	0.02151101	0.083395734	0.04056494	0.10598948	-0.082272686	-0.041538496	-0.06822247	-0.037203018	0.024583597	0.005218645	0.098410174	-0.038879953	0.11469184	0.11766689	-0.13124143	0.20446095	-0.23511793	-0.20398517	0.006175562	-0.026791053	0.08328174	0.10610049	0.097135186	-0.16042447	-0.018314525	-0.042901743	0.08049565	0.032239832	-0.0055611883	-0.12461338	0.023612062	-0.11564615	0.099042274	-0.18776223	0.014930987	-0.072747484	-0.14638138	-0.060515806	-0.055224538	0.1656768	0.049062654	0.0043567535	-0.23607302	0.13689901	-0.06740935	-0.019326815	0.20217904	-0.0972972	0.22860283	0.1313987	-0.0060108025	-0.04108425	0.022561196	0.038518146	-0.044411153	0.28335887	-0.037287973	-0.0101308795	0.0039428966	0.051586498	-0.17875788	0.21268414	0.03812559	-0.06525745	-0.10857514	0.17390355	-0.025681974	-0.13389185	0.09029708	0.037662342	0.03954483	-0.0109147085	0.1316583	-0.0611843	-0.10664115	-0.044759624	-0.062673725	-0.041550707	-0.04043012	0.029797483	0.014883099	-0.031530283	-0.09705102	-0.032906752	0.104972176	-0.08642562	-0.09508212	0.13434833	0.07710666	0.031181324	0.025141694	0.052603036	0.20819633	-0.010550329	-0.13957566	0.073561914	0.036567856	0.13653019	-0.00028334238	-0.096628234	-0.00881373	0.060535487	0.08365897	-0.03747125	0.09556351	-0.026657557	0.07445091	-0.044197015	0.00054993184	0.0028594667	0.06638653	-0.00046681127	-0.10043542	-0.011350725	-0.013964557	-0.04476689	0.086841054	0.026520554	0.036625545	-0.06875685	0.08042417	0.039187316	-0.12029976	0.051369812	-0.054386485	-0.04625055	0.083047256	0.14123479	0.0336576	-0.11571861	0.029588135	0.044029836	-0.032496803	-0.046501413	-0.04401295	0.030385667	-0.073401354	-0.016958278	0.03876009	-0.037347805	-0.069611214	0.090114	-0.045331992	-0.048265025	-0.066898294	-0.042855147	0.07551235	0.11738652	-0.069904394	0.019881697	-0.05812336	-0.06395891	0.015619734	0.091558546	-0.031515967	-0.0007863294	-0.09666221	0.07025487	0.012090815	-0.040444363	-0.1672787	-0.018320719	0.034960978	-0.12150644	0.03173867	0.006120624	0.05984094	0.052260686	-0.032864146	0.038794555	0.07852931	-0.013624297	0.11392226	-0.019290177	0.039911587	-0.01576868	0.0002581953	-0.04674138	0.05226138	-2.793971e-05	0.08099452	-0.014047076	0.039299157	0.098084696	-0.06461353	0.1033638	0.11688191	-0.050501447	0.043496806	-0.029417025	0.11041758	0.02909901	0.08763215	0.07110863	0.04863736	-0.023374394	-0.04054239	0.07077944	0.010443152	0.015647966	-0.052420456	-0.14973736	-0.05081448	-0.015488701	0.13924247	0.09716844	-0.028708857	-0.051865406	0.01255518	0.059294406	-0.030417522	0.10834769	0.0203807	-0.1023032	-0.13154472	-0.08007276	0.08474272	-0.024934586	0.064713486	0.051326245	-0.019254811	0.013969046	0.13759759	-0.05448803	0.10057068	-0.031247955	0.031903107	-0.06085527	-0.09879796	-0.07707304	-0.057457317	-0.08896235	-0.0809618	-0.06930134	-0.054723	0.034208506	0.07436826	-0.10454123	0.017010646	-0.034814835	-0.011770608	-0.032645285	0.08255512	-0.08591608	-0.08851587	-0.16539657	-0.085729785	-0.053879432	-0.090950914	0.13076295	0.07192843	-0.013194841	-0.021058323	-0.04230741	0.095852084	-0.041667692	-0.044244703	0.045579977	0.13803619	0.053984687	0.014848447	-0.054735612	0.14362668	-0.06719998	-0.029977955	-0.031843044	0.12014834	-0.051453188	-0.044572532	0.023059484	-0.15817809	-0.00073688145	-0.09939614	0.04949685	0.06371556	0.026779637	0.09969068	-0.03791377	-0.021777302	0.06566179	-0.01744016	-0.17502531	0.026012242	-0.024829162	0.13041195	0.020437505	-0.09343493	-0.10743568	-0.033512414	-0.08950875	-0.06418491	-0.059817743	-0.050895154	0.09739619	0.04147988	-0.08000819	-0.15254048	-0.06948791	0.07791583	0.02907087	-0.13382865	0.015771473	0.14925386	-0.13499705	-0.010153703	0.007932546	-0.06017198	-0.004021522	-0.08608774	-0.11146575	-0.033072207	-0.07251477	-0.12005602	0.055545587	0.06510044	0.010188496	0.06397465	-0.017918738	0.025232963	0.04509847	0.008133305	0.051648922	-0.015363474	0.042004656	-0.10459039	-0.0060258075	0.048457574	0.035771698	-0.0669588	0.09525082	-0.024195116	-0.024617007	0.022097781	0.07665762	-0.10359608	0.14134449	-0.04199555	-0.14152399	-0.096823804	-0.06702261	-0.089748204	-0.01826362	-0.057916727	0.06502496	-0.052157972	-0.023703532	0.04684735	0.04801485	0.1536529	-0.08078149	0.13098642	0.064787954	0.12563492	-0.19067286	0.10415778	0.008220136	-0.0142403515	-0.05244935	0.014130833	-0.082384974	-0.10845085	-0.028453859	-0.056524344	-0.029632682	-0.0007935218	0.028530838	-0.10633435	-0.035150748	-0.060286704	-0.009639821	-0.05150646	0.009013838	0.058006026	-0.040913094	-0.026988097	0.028722337	-0.15160532	-0.05102893	0.036084805	0.045479786	-0.07907188	-0.04331284	0.08051265	0.052321386	-0.05898964	-0.25030968	-0.10442924	0.034917206	0.09121069	0.034166437	0.04719454	0.045040682	0.05152234	0.0052610007	-0.054825664	-0.046232358	0.05851496	0.16901179	-0.054698907	-0.046056237	-0.030413307	-0.0071999324	0.067820676	0.046064496	-0.0328463	0.04653386	0.028629532	0.038624983	0.014275078	0.060130674	-0.17815335	0.11460859	0.019725807	-0.08163748	0.12251129	0.015996829	-0.08093157	0.109748706	0.10952433	-0.01343917	0.0015534637	-0.02148251	-0.1304367	0.019263541	-0.07903225	0.030247984	-0.028128352	0.09305698	0.0509973	-0.068116724	-0.0913228	0.071853444	0.031401537	-0.020682251	0.06507138	-0.03544066	-0.037311506	0.010022542	-0.02330943	-0.049044378	0.035709787	0.06719153	0.08637356	-0.0685952	-0.11194322	-0.0073825754	0.074853025	0.08353577	-0.06849719	-0.05156457	0.070938796	0.033494975	0.10308833	0.04207031	-0.06930844	-0.06930031	0.009589888	0.06966623	-0.029898725	0.009005664	-0.028584877	0.06336312	-0.05920956	-0.11942801	-0.15941788	0.052424494	-0.013691355	-0.1639346	0.087025225	-0.09454575	0.012261947	-0.034380782	0.06834174	0.030766262	-0.186296	0.032311596	0.057982914	-0.120145865	0.0963578	0.10763966	-0.030709563	0.06672566	-0.026674546	-0.036694303	-0.04036974	0.069492936	-0.03899399	-0.0039088884	0.0045455825	0.026575867	0.06204175	-0.07834152	-0.01867449	-0.06759725	0.06225686	-0.035164338	0.037102252	0.09941189	-0.036779743	0.04324219	0.02672686	0.105138704	0.14137736	-0.016508467	0.06622109	0.044407405	-0.057137903	-0.058612965	-0.04406512	-0.038788848	-0.016653093	-0.040333856	-0.09462771	-0.10270513	-0.001640866	0.045305382	0.048622005	-0.05055537	0.003317759	-0.1194056	-0.104872	0.059480425	0.075593114	-0.15620276	-0.04442046	-0.038268298	-0.011981922	3.9030914e-05	0.013137396	-0.17510448	-0.10893038	0.038843334	-0.078601584	0.080489576	0.045897473	-0.018145379	0.026052136	-0.0795055	-0.011422835	-0.057822436	0.07928282	-0.27085668	0.071331546	0.04594341	0.2169007	-0.10705254	-0.07314918	-0.048676077	-0.1724383	-0.033141714	0.075033545	-0.040538065	-0.1329138	0.050655898	0.087969735	0.13487299	0.00549556	0.022550933	-0.03252524	0.0024824932	0.019824248	0.17530431	-0.14163677	-0.01234611	-0.011091395	-0.042356018	0.00811564	0.12931482	-0.012880908	0.03769074	-0.011530102	0.026419235	-0.07438542	0.08327148	-0.06860379	0.026945943	-0.084647	0.06548778	-0.10504091	-0.11989928	-0.0029083784	-0.091588326	-0.037115887	0.07604214	0.054286472	-0.011523415	-0.0845923	0.06656119	-0.094804674	-0.006270132	-0.12921616	0.015836889	0.044824973	-0.010241208	-0.11293999	-0.08607007	-0.07900991	0.01101296	-0.059681993	-0.0445017	-0.020486984	0.03767812	0.0007240712	0.031076897	0.10638215	-0.037672147	-0.050791953	0.08226867	0.040753104	0.12110124	0.041492842	0.08708209	-0.11091671	0.08529263	-0.06289663	-0.0096250605	-0.0392414	-0.13938686	0.018581582	0.0438307	-0.008665566	-0.012563837	0.007396159	0.04692899	-0.0067233886	-0.11792512	-0.07062913	-0.13990127	0.08852808	0.02191453	-0.038892534	0.03355059	-0.026886659	0.10750483	0.029842211	-0.0023439485	-0.12877195	0.06580823	0.07218809	0.011894298	0.00065090315	0.031996414	0.06152702	0.06561181	0.0032641143	-0.037822258	0.030986976	0.12935413	-0.035491534	0.026689207	0.1782075	0.00039972083	-0.014057372	0.066553764	-0.03416085	-0.048722032	-0.11703383	0.027659986	0.01714868	-0.023045756	-0.15528789	0.1050671	-0.049718216	-0.21230297	-0.17572565	0.09348912	0.069271594	-0.023815373	0.1506396	0.045047857	0.14223984	-0.04119122	-0.069742136	-0.09757766	-0.039147664	0.070696354	0.019731967	-0.0061720274	-0.025017353	0.09997131	-0.07991121	-0.080114484	0.00079493213	-0.00425919	-0.059181858	0.04908938	-0.09071636	-0.08174654	0.10659432	-0.0023451082	0.06893551	0.08211654	0.011262372	0.13026112	-0.061436523	0.026197491	-0.058223773	0.07867933	0.14042516	-0.016991159	0.0022540244	-0.09941173	0.043249246	0.024015438	-0.06167413	-0.03087874	0.047913484	0.094135135	-0.07159879	0.017596418	-0.016491797	-0.008255132	-0.06784403	-0.11619919	-0.036922168	-0.0071509215	-0.006003512	0.0894221	0.04088637	0.0691575	-0.079482	0.13338359	0.073190525	0.048923247	-0.005105219	-0.056890387	-0.1082438	0.07347697	0.08343965	0.052419268	0.052472237	0.10186737	-0.009715284	0.09734177	0.077360466	-0.10158095	-0.03400736	-0.15845226	0.03910258	-0.008289334	0.11746279	0.0049847434	-0.07858804	-0.0029757912	-0.08004084	0.112187415	-0.02657754	0.086326376	0.07874903	-0.1335922	0.012165862	0.0072444975	-0.028996576	-0.010077102	0.12746668	0.0067475354	0.071290724	0.12801585	0.12769562	-0.014481042	0.0067391824	0.034619737	-0.11042035	-0.011832069	-0.010664193	0.016639268	0.07877877	-0.0785803	0.12536588	0.008253246	-0.13027406	-0.017585924	-0.07276009	-0.019297332	0.09907265	0.006769089	0.028318835	0.0020804026	-0.060637914	0.062090214	0.09483715	0.04617581	-0.09224193	0.11946202	0.016583486	-0.004424486	0.11545034	0.022972599	0.04594203	-0.008211822	0.062483557	-0.05989242	-0.12164256	0.010417958	0.09384691	-0.029731506	-0.11153539	0.016536307	-0.14085408	-0.065164834	-0.11191227	-0.0113588	-0.0852621	0.065268025	-0.041794952	0.042982563	-0.0650849	-0.0098704025	-0.0030670038	-0.050580304	-0.020775344	0.027647989	-0.1382247	0.019916477	0.058965355	-0.08984011	0.052989636	0.014246016	0.010521144	0.007384604	0.010304654	-0.08655678	-0.097452484	-0.04025754	0.03880133	0.006548897	-0.013012985	-0.124506555	0.055558722	-0.00094224786	-0.03307062	0.03985066	0.103171125	-0.029590258	0.04464804	0.059445772	-0.16122627	-0.2195071	-0.07954728	-0.06909507	-0.053761914	0.038217288	-0.11762937	0.0569102	-0.081782624	0.0731464	-0.07586754	-0.08194541	0.19041814	0.026365446	-0.11773283	0.10747682	-0.07870972	-0.122597165	-0.059809364	0.08311346	0.06457117	0.0029027325	-0.05688662	0.007468678	-0.1739197	0.04095231	-0.078953944	0.073948905	0.13272499	-0.10476079	-0.14192474	0.11128698	0.057961583	-0.17800833	0.089428924	0.14700332	-0.0060225576	-0.06518424	0.041754477	-0.013363558	-0.106395006	0.048262402	-0.094238736	0.10010765	-0.017748961	-0.011052727	0.015707532	0.0075442707	-0.040841617	-0.04349366	0.019217342	0.10810416	-0.0030938894	0.0326402	-0.018186385	0.047630038	-0.0842731	0.04891461	-0.11880069	0.1556516	-0.16026944	-0.059723277	0.048882283	-0.084395416	-0.053218625	0.110162206	0.08105285	0.102589816	-0.033330407	0.029747106	-0.009309454	0.018096382	-0.08689118	0.004161851	-0.025832102	-0.049033094	0.08057582	0.03612276	0.094943725	-0.027776347	-0.06362965	0.052259423	-0.051998064	-0.07260264	0.034254782	-0.010652391	-0.147786	0.032871153	0.16088417	0.063035995	0.12334231	-0.090458296	0.005682859	0.033072595	0.06784981	-0.08435413	-0.007289284	-0.09760625	-0.09424622	0.10180587	0.0634953	-0.08146652	0.018359449	0.06633106	0.04615758	0.064528406	0.0710449	0.0749326	-0.14329366	-0.02908079	-0.03443976	-0.12767024	-0.060423933	-0.017805513	-0.055977933	0.028163992	0.1156267	0.15629634	-0.010403478	-0.08659473	0.049863007	-0.05867657	0.18467583	0.013261628	-0.06817023	-0.05768088	-0.12068066	-0.021716183	-0.06226263	-0.03424014	0.008116406	-0.09080018	0.07575298	0.05207633	-0.03852005	0.103651404	-0.1198366	0.039281193	-0.032096636	0.018397573	0.016333926	-0.041391235	-0.034525983	0.11761987	0.09122715	-0.06508414	-0.018332675	-0.06954842	-0.033742897	0.14431863	-0.096565895	0.027973851	-0.100183204	-0.1255071	-0.046624273	-0.10659587	0.11312796	0.06066758	0.13651423	-0.0151569005	0.011567992	-0.015078513	0.0048835347	-0.02134214	0.0479278	0.010261918	-0.044834245	-0.076989554	0.03227401	0.004350077	-0.01089379	0.043337096	-0.17385899	-0.02220216	0.0580837	0.0027268725	0.074010916	0.023297807	0.018265141	-0.09419008	-0.07761623	-0.037736457	-0.02081797	0.02856147	0.14811471	-0.003345047	0.046183787	-0.0023792423	-0.0012083842	0.07666056	-0.03623204	-0.040899057	0.041814134	0.120562404	0.1185823	-0.04171041	0.04743232	0.0022445628	-0.21410775	-0.00900735	-0.025245706	-0.10248975	-0.003582467	0.1699973	0.1608811	-0.04210097	-0.21670526	0.010800504	-0.049578335	0.027602501	0.06485727	0.09352192	-0.08352539	-0.118935764	-0.008900176	-0.029589584	-0.091527455	-0.16900207	-0.054277133	0.06789058	0.072098285	-0.0922736	0.08542938	-0.016380036	-0.10539114	0.08373731	-0.08803427	0.030527862	-0.04584478	0.071931064	0.12554047	0.008978574	-0.06039096	0.026643068	0.014900135	-0.15010205	-0.14903362	0.096258216	0.0019962187	-0.062931724	-0.011812661	-0.04523406	-0.097763434	-0.06859189	0.16649218	-0.015275456	0.03266982	0.042369217	0.22248219	0.14220409	-0.21665889	0.03246688	-0.047113005	0.015310078	0.040385388	-0.066042066	0.18474708	-0.037744142	-0.27333406	-0.1341424	-0.056290247	-0.03152258	-0.06754376	0.08511815	-0.09542973	-0.07330215	-0.09161719	-0.0052945325	0.07557735	-0.0017991619	-0.07743829	-0.008708141	0.008321936	-0.13806035	-0.11024072	-0.20284186	0.14629741	0.025222873	-0.080105044	0.005212961	0.03084984	-0.000677785	-0.046054352	-0.003965081	0.007913325	0.05494034	-0.11216838	0.0054875426	-0.03505319	0.030943481	-0.093509816	-0.02671312	0.010293073	-0.054992963	0.023930538	0.049120024	-0.052281175	-0.08994991	-0.06228132	0.05765705	0.06260359	0.072677776	0.0057833847	-0.048422765	-0.00021092632	-0.026644448	-0.07855925	0.009941456	-0.011941079	0.0697217	0.054076083	0.12982558	-0.05792655	-0.0384297	-0.06496737	-0.015176434	-0.042349834	0.07652402	0.11648634	0.0029171163	0.031127073	-0.033278137	0.0015153856	-0.066801876	-0.026736105	0.028759249	0.14234082	-0.05305797	0.0053859157	0.09845927	-0.053565647	0.07272178	-0.004274794	-0.090083875	0.06800997	-0.05300753	0.060124073	-0.17492859	0.08049655	0.0475353	-0.021006986	0.11485618	0.15543427	0.023478463	0.043078776	-0.028410075	0.0026978103	0.017569305	0.038276393	0.009992187	-0.019744234	-0.06811062	-0.041549824	-0.082612254	0.05332853	-0.013493691	0.061591778	-0.04021914	-0.011524869	-0.0962751	0.029005045	0.05013411	0.0012661731	0.06871733	0.027468922	-0.1335377	-0.0056260377	-0.119596206	0.0754962	-0.06955919	-0.035377268	0.0038856864	-0.052618902	-0.04069417	0.119018145	-0.119267225	-0.08036762	-0.07094268	0.042997085	-0.15852548	0.039269365	1.23590735e-05	-0.055273544	-0.090574026	-0.025554493	0.122350566	0.090540595	0.107428715	0.005778979	0.035652064	0.038602516	-0.0036363176	0.1380547	-0.032274917	-0.076612785	0.0006682704	0.13162029	0.055458024	-0.07445877	-0.004152019	0.056127984	0.039519828	-0.013979067	-0.044681806	0.1545548	0.021763988	0.018148433	0.024077082	-0.083803445	-0.043702018	-0.07130534	-0.041237626	-0.07185284	-0.062883526	-0.008975715	-0.09359968	0.024969634	0.08502432	-0.018109957	0.05207299	-0.0016533753	-0.1260249	-0.11686114	-0.02510245	-0.022412078	-0.085367225	-0.0127503695	0.056549955	0.035360433	0.007555252	-0.03453799	-0.060735133	-0.014404984	0.024743201	0.14708251	0.00669179	-0.0131986085	0.07821482	-0.025539422	0.09550377	-0.025721619	0.10911119	-0.026425717	0.046138495	-0.041087177	0.11798986	-0.08991091	-0.067157626	0.10513854	0.07099903	-0.035230853	-0.028365761	0.011891001	-0.102693014	-0.05138574	0.05810248	0.032617856	0.08883831	0.03765363	-0.020981636	0.0036306796	-0.08682449	-0.11974254	-0.07218933	0.015251386	-0.110712014	0.013092147	0.069217995	0.034839876	-0.053179666	0.038834315	0.08741714	0.028865395	0.1299779	0.11400642	-0.01368391	0.022218628	0.014474765	0.031487875	-0.037531417	-0.04152072	0.0051274383	-0.088686004	-0.080617175	0.026370684	-0.17506629	0.17339498	-0.0017315722	-0.15454558	0.14766483	-0.01183244	-0.03034489	-0.017857807	-0.05666001	0.14062557	-0.0375707	-0.0173449	-0.08770517	0.020962493	0.009915814	-0.09849713	0.06862103	0.065819964	0.09741452	0.13488986	0.07429418	0.01745975	-0.04278125	0.014742593	-0.0323202	0.014392543	-0.10133563	-0.014829171	-0.16394532	-0.06306724	0.0027417538	-0.13819495	-0.0023609267	-0.17831853	-0.009081648	0.13849431	-0.18144552	-0.14323796	0.00574137	-0.090246454	-0.0899839	-0.07097802	-0.116897315	0.02511445	-0.12843339	-0.13696468	-0.010910982	0.038466565	0.030270375	0.09144971	0.1824796	-0.0032408042	0.09605895	-0.0050701345	-0.03806135	0.08725774	0.012261923	-0.026130466	0.11732705	-0.058611833	-0.07845624	-0.19587149	-0.26207027	-0.047048766	-0.01044204	-0.008713362	-0.05808013	-0.036964174	0.118146986	-0.08888043	-0.016958872	-0.1535077	-0.0662768	0.13375954	0.21723424	0.09988864	0.02009429	-0.102017045	-0.120748796	-0.00134487	0.047812566	-0.122540906	-0.08568705	0.05868225	-0.036157783	-0.015027065	0.16799867	-0.06602037	0.31526726	0.012239283	-0.035059992	-0.031768717	-0.064804114	0.08321544	-0.0870412	0.09719987	0.06831663	0.14684032	-0.113281175	0.07144297	0.11530096	-0.20165524	0.036632683	-0.088966325	-0.119398534	0.05451003	0.006673936	0.09243967	-0.09101332	-0.09815275	-0.042811424	0.031136122	-0.036369473	-0.057908688	-0.021951435	0.12948002	0.06740162	0.027249873	-0.014250664	-0.043249287	-0.029048683	-0.049364664	-0.09284324	-0.04131454	-0.033247024	0.022348514	-0.10576822	0.018669717	0.13538551	-0.07237876	0.047149185	-0.112949766	-0.014669067	-0.08977875	0.030997531	0.10189794	0.037106585	-0.038056914	0.05456452	-0.019473664	-0.024633996	0.13065977	-0.052116584	0.10212224	0.030619647	0.060090408	-0.12527955	-0.13868502	0.016385835	-0.09918804	0.10585042	-0.029673804	0.024779364	-0.05522411	0.013410428	-0.021277817	-0.01639419	0.016277252	0.03244858	0.12074785	-0.0056584417	-0.07906011	-0.09327586	-0.0014388633	0.099700585	0.1549145	0.109606184	0.07521324	0.06905946	-0.07769829	-0.021426663	0.088110656	-0.05652254	-0.017724311	0.080788806	0.1522625	0.03805255	-0.035710078	-0.013758601	0.06119677	-0.09534267	0.07834292	-0.05828466	-0.014690925	-0.010445004	-0.06425085	0.06368614	0.0066937916	-0.13291374	-0.015586204	0.014380619	0.079785615	0.0063519483	0.0732388	-0.07026142	-0.10030652	0.10727959	0.13530959	-0.03833961	-0.20081307	0.09039886	-0.019026998	-0.020094251	-0.01323582	0.05486802	0.0070499773	-0.011749018	-0.08795364	-0.026916228	-0.072668746	-0.043654807	-0.030055871	-0.16979587	-0.011238745	-0.052826233	-0.034595	-0.13105963	-0.044666044	0.029873751	0.13863504	0.11727243	-0.05521558	-0.005938392	-0.04995481	0.06065956	-0.27309942	0.002725337	-0.04119834	-0.26539662	0.0012326795	-0.0037929034	0.043352377	0.09267867	-0.07047531	-0.008810131	0.015920503	0.12830946	0.04267852	-0.02067796	0.00021134203	-0.081628844	-0.07611999	0.02025935	-0.06715145	-0.045499362	-0.03740725	-0.0121933585	0.045850847	0.100713484	-0.056325216	-0.015154992	-0.15581533	-0.046316132	-0.015504706	-0.043474723	0.039235983	0.040108	0.38444254	-0.04221866	0.014385874	0.166551	-0.06693933	-0.11114699	-0.1853533	0.0017512535	0.060195267	0.09263676	0.09164464	0.027899358	-0.020891026	0.028054425	0.005907463	0.07689099	0.024165459	-0.045861404	-0.08884401	0.0059137903	-0.045628365	-0.061694365	-0.10613825	-0.17660227	0.06940439	-0.10052855	-0.013298343	0.022019554	0.10665584	0.072830416	0.030084155	0.016288707	-0.13113403	0.078423925	-0.11334366	-0.043223508	-0.14322074	-0.010721589	0.014235533	-0.09982132	-0.056187026	-0.03391104	-0.11834987	0.10636007	-0.017302493	-0.043768156	0.056799658	0.044868026	0.0039019198	0.08786591	-0.061024163	-3.90163e-05	-0.050519258	0.06396907	0.019127533	-0.08654191	0.004163154	0.053666294	0.10486037	0.077758916	0.045876153	0.081339695	-0.033821706	-0.1466938	0.064248964	-0.0064749303	0.009395253	-0.077072024	-0.0153413275	0.028703177	0.084973045	0.12556706	0.029602898	-0.03323754	0.01849874	-0.00543497	-0.0012464301	-0.08581074	0.13304278	0.019300109	0.043796103	-0.07530968	-0.047125675	-0.0013201319	0.01621179	0.10500237	-0.0143665485	0.056718726	0.0360378	-0.0072394703	0.095210195	-0.00937177	-0.08314053	0.023834135	0.0030653435	0.049247924	-0.02311063	0.057211116	-0.11807144	0.034323324	0.12730525	-0.039033853	0.061455775	-0.028295357	0.06824158	-0.020947425	0.00799619	0.017596949	-0.029885642	-0.016536217	-0.04444534	0.024543429	0.03703061	-0.037324063	0.09118058	-0.029354488	-0.0626301	-0.01633605	0.13722399	0.047938026	-0.05985048	-0.058477886	-0.082563005	0.124969274	-0.010815353	-0.006528278	-0.018750276	0.037243336	0.059384126	0.05821363	-0.034330893	-0.0403533	0.0053958753	-0.028619621	0.0793307	0.055799674	0.12920372	0.10394785	0.07141376	0.031939175	-0.104522176	-0.0014922217	0.13405918	-0.03219591	0.08833854	0.1004984	-0.036073558	-0.11813282	-0.0529772	0.041141476	0.057656813	-0.039453063	0.1690038	0.12970978	-0.13198394	-0.018954841	-0.03277911	0.051606074	-0.02628066	-0.087135285	0.02067558	0.020517161	0.05392259	-0.05933324	0.0017572324	-0.08502831	-0.009185453	0.04006421	0.035459537	-0.06199575	-0.06872106	-0.011736835	0.005083844	-0.038625743	-0.103759274	0.095703065	0.096122675	-0.03837369	-0.034976248	0.08842679	0.0012197616	0.08145799	-0.030921318	0.058555465	0.106421776	0.09193095	0.11127677	-0.08053179	-0.066921234	-0.031637866	-0.090481944	0.025153061	-0.015428051	-0.002620829	0.0063082646	-0.07490041	-0.0028585864	0.08929939	0.05144525	-0.019295821	0.03050971	0.026368514	0.0069494876	0.03145675	-0.023861019	-0.0115858065	0.03945847	-0.03164347	0.007841331	0.0021179388	-0.09267236	0.07653266	0.017323004	-0.040302087	-0.0057389773	0.01487662	-0.046167124	0.08639198	0.08296515	0.018066633	-0.08572229	0.054250367	0.05450196	-0.0067428458	-0.035036888	-0.0807409	0.007887353	-0.034893215	0.14458556	0.037802923	0.016852101	-0.040607844	0.079663806	-0.029446749	-0.039290972	-0.072504945	-0.02513668	0.053494968	-0.03918954	-0.016170636	0.05274458	-0.054261863	0.0043434994	-0.08325422	-0.06488659	-0.055027332	0.15805544	-0.06549453	-0.058198173	0.07889267	0.022838065	0.016965682	0.10305388	0.06155134	0.10140504	-0.060378157	0.02333266	0.015797509	-0.07887886	0.008559115	-0.09360503	-0.08318663	0.023820313	-0.06070371	-0.011856255	-0.054113515	0.0040250137	-0.039869685	-0.03253416	0.0868321	-0.17842369	0.09713543	0.010721475	0.13895305	0.022739157	-0.0065563032	-0.038507562	-0.059223704	-0.04447532	-0.030711476	0.00086839165	-0.006966199	-0.060799487	-0.094375744	0.024202496	-0.11018523	-0.12861192	-0.13396901	0.06967584	0.112933226	0.16315405	-0.20809445	-0.07292196	-0.006518598	0.13436699	-0.023292448	-0.005179577	-0.024642793	0.04663791	-0.12551972	-0.090336	0.02408155	0.08770583	0.0017132235	0.033062033	0.077676006	-0.07753815	0.12174056	0.05683983	0.018155959	0.06712982	0.039225638	0.036644585	0.12135187	0.0002740535	0.047314785	0.040201597	-0.043723732	0.11303588	0.017310284	-0.007565648	-0.0331512	-0.054034248	-0.0146691725	-0.032053582	-0.10530194	-0.08788431	-0.054518364	0.1270622	-0.062468424	-0.054715645	-0.0069836793	-0.0021729656	-0.08550332	-0.03604616	0.03669856	0.017700907	0.2879571	0.051341176	0.02646729	0.04711355	-0.0066426676	-0.07780935	-0.0140309315	-0.11671034	0.006052153	-0.055826206	-0.12359779	0.061945558	-0.07386065	-0.035510097	0.08239333	-0.058564063	-0.04869774	0.0963184	0.09210649	0.03051736	0.07135474	0.050761875	-0.06375921	-0.092005335	-0.07381443	0.09391281	-0.08177523	0.06291552	0.042934667	-0.029243385	0.058071315	-0.01755409	0.07673415	-0.02538608	0.08874695	-0.043796953	-0.0032293308	-0.09040075	-0.018957809	-0.017394004	0.018986465	0.022495363	-0.009668878	0.041982513	-0.075335436	-0.06151336	0.13886732	0.03287555	0.022723202	-0.07032284	-0.11867386	0.034202922	-0.03383988	-0.023144905	0.023981407	-0.023026682	-0.12554681	-0.035823632	-0.082539946	0.090153344	0.05001267	-0.036773175	0.12024449	-0.021108849	0.025167	0.043614157	0.10405574	-0.04791103	0.06875999	0.038063202	0.10988485	0.0060650287	-0.0928958	-0.034112502	0.02712743	-0.13536286	-0.032761015	-0.06763206	0.0312578	0.07902804	-0.062506974	0.07439235	0.036730506	0.026289493	-0.08794951	0.018296784	0.02568536	-0.07602017	-0.049430627	-0.0946025	-0.041438535	-0.019722326	0.023756193	0.07068221	-0.010653645	-0.13698809	-0.06763432	0.058934387	-0.08594384	0.06744948	-0.04520474	0.005846524	-0.07245525	-0.14863591	0.056700643	0.044789538	0.03777799	-0.022825576	-0.020770589	0.053410515	0.05315222	0.019644888	-0.04147631	-0.1506318	-0.04199714	0.0028817367	0.033357076	0.06583904	-0.03668315	-0.08500216	0.09051856	0.10162435	0.11273491	-0.10097026	0.07176276	-0.070405565	0.031767726	-0.04872449	-0.069467895	0.033593982	-0.14404997	-0.0091905305	0.023975058	-0.03012061	0.0154781435	-0.032217067	-0.0026232551	-0.0297331	0.058715038	0.04471168	-0.11158045	-0.11984901	-0.028536092	-0.051972847	-0.044884317	-0.014891461	-0.20364615	0.015988508	0.094742544	-0.039053604	0.07973916	-0.078214526	-0.010192078	-0.1531496	0.053865448	-0.06637374	-0.14467894	0.003954911	-0.09061245	0.022439437	-0.16557188	-0.07878366	-0.05461422	0.12301331	0.0030830237	0.028907994	0.054413613	0.04643838	-0.032829497	0.02937285	-0.041806694	0.008343098	0.061499313	0.036446806	0.07730692	-0.064542964	-0.042201955	-0.022312675	0.11063119	0.0058190245	-0.05143709	-0.009571828	-0.05910801	-0.12201054	-0.03899388	-0.05762584	-0.045938227	0.05624957	0.05704358	0.057066295	0.0668557	-0.026306583	-0.021619204	0.09817739	0.12231261	0.02890851	0.06628762	0.0046249884	-0.0029463095	0.100263216	-0.046996422	-0.016044589	0.06539745	-0.04265872	0.06735276	0.05741595	-0.012717358	-0.03212967	-0.011689062	-0.025691373	-0.090046965	0.0031692537	0.036586594	0.071861245	-0.1544111	-0.0776746	0.030269809	0.027990142	0.047562618	-0.11835739	0.14794828	0.07159626	0.045314524	-0.044711336	0.07791097	-0.0767477	-0.021855667	-0.106649846	0.11722053	-0.06835831	0.052804492	-0.037314873	0.02118176	-0.001363717	-0.14514063	-0.020656416	0.07313178	0.10363568	-0.03248989	0.07162792	0.040062193	0.110963084	0.12565196	-0.04775565	0.08812407	-0.15855612	0.01353265	0.11308757	0.054920014	0.15950811	0.07356591	-0.005076956	0.042927627	0.035424884	0.043244615	-0.04502442	0.04193628	0.042725436	0.024990637	0.023850847	-0.08809248	-0.08461647	-0.016643725	-0.022319872	0.09435974	0.0040601417	0.014359193	0.0011384874	0.13235214	-0.039268274	0.072820865	-0.14905395	-0.07906066	-0.030233562	0.041510392	-0.036242235	-0.09345802	-0.0960554	-0.026416102	0.0675842	-0.021138199	-0.113325655	-0.11978408	0.08270517	-0.07851862	-0.11164592	-0.11767209	0.1396313	-0.13146728	-0.04375816	-0.014540306	0.0026046908	0.026829218	0.08020203	0.030837597	-0.04820388	0.08579359	-0.027203053	0.042310156	0.007283793	0.119985685	0.08575239	0.047198426	0.037839133	0.084545635	-0.05769788	0.024689278	-0.0014078572	0.048687443	0.025841566	-0.018377954	-0.11148249	0.05567999	-0.017802708	0.039037943	-0.09372055	-0.117445774	-0.09962197	0.04009562	0.006217682	0.010290734	0.05183218	0.00237013	-0.110170886	-0.17128046	-0.06212068	-0.07227801	0.10625568	0.0793244	-0.089535825	-0.011579868	-0.03461311	-0.0679826	0.054138027	0.081227876	0.02947451	-0.08048934	0.1507324	-0.08933518	-0.01094705	-0.04003558	0.04837752	0.026228217	0.01033396	0.051188096	0.021108873	-0.036670167	0.012776476	0.076039754	0.07062957	0.16708718	-0.040469587	0.06177215	0.13937695	0.05497006	0.14316612	0.089823045	-0.119943336	0.034355305	0.054611016	-0.07041256	-0.12216716	0.0506622	-0.07574533	-0.058211558	-0.04731739	-0.028300455	0.03820453	-0.013862237	0.032072067	0.060576253	0.094440356	0.0028301142	-0.06384569	-0.0072381403	0.019597836	0.03896004	-0.023761945	-0.019935194	0.014302642	-0.033440918	-0.02484179	0.014732783	0.12842378	0.033496663	-0.12037578	-0.00961025	0.1325069	-0.10640936	0.037954967	0.042962216	-0.029506598	-0.0015686033	-0.06465099	0.061372835	-0.007078907	-0.026053876	-0.034018576	-0.038453408	0.0033171433	0.016374186	-0.030085355	0.032777682	0.039148547	-0.053160004	0.06253831	-0.002907878	-0.03846081	0.10073894	0.027550785	0.042275336	-0.05615344	0.06896891	0.05547374	0.048542883	0.0022842102	-0.10686548	-0.090313666	0.11904102	0.040758695	0.003935785	-0.02305027	-0.041551076	0.05807522	0.00821359	-0.069144726	-0.11698811	0.007440564	0.01975985	-0.013717724	-0.10125984	-0.06794411	0.021520343	-0.050312407	0.0036683364	-0.17934896	-0.12047312	0.058074772	0.009071821	-0.10114239	0.18032952	-0.029227264	0.03502355	0.012998853	0.05659741	-0.051087294	0.013890823	-0.021442924	0.08677317	0.094256505	-0.044467706	0.030067008	-0.02896641	0.016931865	-0.009359421	-0.043875664	0.0850099	-0.045525383	-0.13644436	-0.016045097	0.02213462	0.056413114	-0.13787739	0.16069654	0.0043223198	0.10578297	-0.012584798	0.16988164	-0.019652477	0.021158447	-0.060544156	-0.16257396	-0.10347208	0.13423915	-0.14636429	-0.03487707	-0.06556023	0.0052872277	0.012426911	0.03506073	0.0051272316	-0.09921587	0.08900774	0.092907004	-0.014912463	-0.089640215	-0.051678155	0.060547914	0.07742003	-0.030728893	0.054191362	0.06132474	0.14143914	-0.16137798	0.13062303	0.03999823	0.06045476	-0.018704696	0.016685111	0.08264044	0.007006333	-0.047115672	0.039981842	0.035755828	0.03138688	-0.13571008	0.08647836	-0.030128786	-0.07979141	0.03202723	-0.019525114	0.049087286	0.036298383	0.13441378	0.066149466	0.09171794	0.11114744	-0.016248988	-0.16809025	-0.09320092	-0.025770616	0.05933621	-0.1396965	-0.12271933	0.104809746	-0.0574688	0.048241615	-0.047576025	0.066436864	0.03885471	-0.10088853	-0.15225832	0.008757755	0.099427745	0.04157239	-0.009292321	-0.051961746	-0.104507245	0.017781954	-0.0054262257	0.06489154	0.061317496	-0.06595539	-0.10707038	-0.057877082	-0.11606907	-0.11075255	-0.08116991	0.04053486	0.045886375	0.057826247	-0.106773496	0.019969426	-0.027246132	0.03811247	0.021286264	-0.13394248	0.011155024	0.02160315	-0.04785132	0.0815501	-0.11790796	0.045852285	0.005703908	0.021406047	-0.0626904	0.042829994	0.18395501	0.05844907	-0.043525875	-0.120914645	-0.11261268	-0.026134733	0.106879614	0.12882698	-0.104916796	-0.11717314	0.052733	0.02642668	-0.024151267	0.09263373	-0.025260814	-0.0071802046	-0.12337998	-0.089945145	-0.06048091	-0.009895267	0.029292652	-0.053193912	0.18494816	-0.08479274	0.0841066	0.00076959794	-0.07194	-0.122579336	0.047894422	-0.007438035	-0.094317764	-0.04204921	0.04350594	-0.11103416	0.015099787	-0.09314587	0.08920388	-0.019316686	0.06276962	0.02213276	-0.08986522	-0.070595905	-0.07745476	-0.0064106784	-0.10846752	-0.13872	0.1383937	-0.016726324	-0.111408316	0.028341468	0.13826793	-0.049787857	0.011347243	-0.04120802	-0.013551811	-0.008334672	-0.08838853	-0.07864021	0.058249217	0.050723076	0.0032564534	0.02189766	-0.024260994	-0.09955771	0.020826666	-0.0643717	-0.056871004	-0.07079808	0.12559383	0.017095726	-0.0931312	-0.00012955835	-0.03495952	0.122774005	-0.1216282	-0.14775367	-0.137462	0.0066005834	0.029240636	0.11747517	0.06568612	0.0827083	-0.007688839	-0.005248895	-0.022812217	-0.13744362	-0.02731739	-0.055952005	0.16334672	0.051450238	-0.07290708	0.009693431	0.008839224	0.075784326	-0.121575326	0.0237532	-0.03280927	-0.12925963	0.057503447	0.002224799	-0.018420374	-0.09416944	-0.025485162	-0.072039716	-0.082118325	0.008090785	0.082320705	-0.06119819	0.07234253	-0.016863488	-0.116081916	-0.23432866	0.029673807	-0.07397119	-0.17725278	-0.08560826	-0.009435195	-0.047823936	-0.05147805	0.14397909	-0.23093799	0.033005495	0.082639664	0.14992934	-0.11512466	0.01201861	0.12572922	0.037076283	-0.16744865	-0.04140043	-0.0057821544	0.048673604	-0.079736024	0.24264157	0.0045043733	0.027915247	0.026804952	0.037763752	-0.016684001	0.02720443	-0.11934537	-0.048024602	-0.0030954247	0.12283992	0.081186414	0.02867524	-0.08192299	-0.016074251	-0.19517203	-0.09185988	0.020462083	-0.030481083	-0.015087601	0.008315812	-0.047615282	-0.013824338	-0.13797703	-0.08332347	0.10755628	0.083728544	-0.009420019	0.10661828	0.063503854	0.004964468	-0.0050597936	0.08505655	-0.025166498	0.009838961	-0.07072128	0.11959603	-0.060985073	0.025780601	0.0010996236	0.18009152	-0.07764074	0.01021299	0.04069139	0.012299473	0.08230684	-0.040086817	0.026925258	0.13714951	0.016423056	0.083152816	0.12151458	0.046424612	0.07896844	0.11635483	0.004639425	-0.084031455	-0.049389213	0.020462533	0.042213503	0.038194794	0.06854925	-0.05883143	-0.11843523	0.081936404	-0.023759656	0.16047044	-0.03872263	0.028621668	-0.04214643	0.016966233	0.049743317	0.015102465	0.079733714	0.06740133	-0.10884252	-0.030795326	-0.02928051	0.022989651	0.027138205	-0.10287384	0.10496439	-0.04737901	-0.009628465	0.0060440395	0.0036513656	-0.05937034	-0.020019239	-0.06268724	0.088623025	0.00023662279	0.01736016	0.04310848	-0.060754806	-0.123232536	0.113712646	0.03574875	0.085438006	-0.07844701	0.085800976	-0.08060926	0.13450035	-0.018328339	-0.041640744	-0.05789864	0.040060643	-0.06510695	-0.041403882	0.13710433	0.055276293	-0.037769902	-0.11294511	0.0027936145	0.10368398	-0.008250446	-0.086411	-0.16273719	0.0803498	-0.0673387	0.021292184	0.014508522	0.12677316	0.01575242	-0.041914932	-0.11925013	0.004976119	0.0051770234	0.020722574	-0.034425333	-0.05526052	0.02843072	0.120033495	0.02507412	0.098050304	-0.06117058	-0.052406322	-0.017768178	-0.052244063	-0.040583145	-0.08884865	-0.00050841697	0.037037082	-0.050009646	0.020662311	-0.03272969	-0.057915386	0.007763281	0.108084925	0.04047397	0.036305208	0.1442633	-0.09664806	0.06563989	-0.06236042	-0.13499448	-0.004403603	0.016687961	-0.06096569	0.099719904	0.024924912	0.08590618	0.06737268	0.018411705	-0.028090954	-0.08481589	0.08205164	-0.020404916	-0.083542995	0.17718838	-0.07867159	-0.10323251	0.05167544	-0.030721514	0.013786378	0.060033586	0.06886898	0.13155872	-0.011833799	-0.039518133	0.0061836676	0.061926924	0.03908975	0.07978568	0.03288189	0.06537386	-0.05150429	0.0019205878	-0.010815547	0.070737384	0.10743701	0.047120035	-0.059345067	0.09885906	0.012352362	0.041640814	-0.04971278	-0.06298513	0.02330123	-0.012636503	-0.087512806	0.03881741	-0.09279106	-0.04799967	-0.0478764	-0.0014028462	-0.04131861	0.007333311	-0.05193875	-0.04824798	0.08664109	0.038632378	0.0028044216	-0.08021121	-0.0055945893	-0.09772898	-0.021115473	-0.05379631	-0.058690168	0.10222466	0.0913044	0.049515106	0.04590729	0.10766676	0.0659267	-0.02741264	0.111467004	0.0106743695	-0.0495196	0.02634029	-0.026781615	-0.011794578	0.17571269	-0.12060341	0.10058982	-0.012265362	-0.078429945	-0.05143547	-0.030503208	-0.102423795	0.08603627	-0.08645282	0.05088091	-0.026954181	0.038173437	0.031336818	-0.103177704	-0.008558972	-0.033198632	0.053046227	0.07205847	-0.049187087	-0.004282261	0.107587464	-0.035069592	0.007659395	-0.018897938	-0.06381902	-0.161746	0.00660209	0.007507158	-0.07494748	-0.015352523	-0.007836906	-0.054113228	-0.14915295	-0.054415092	-0.06609561	-0.15417	-0.04316346	0.11503249	-0.08344751	0.047088947	0.0037567592	-0.073746994	-0.013356369	0.0991613	0.06514102	-0.09502249	-0.16057666	-0.01718935	-0.034077022	0.12803657	-0.07925214	-0.09747046	-0.06571723	-0.04703283	-0.037604652	-0.036965925	-0.01178026	0.009046469	0.06454095	-0.034374617	0.075515404	-0.060727783	0.030731065	-0.11622015	-0.040803242	0.01697925	-0.023197355	0.12936822	0.029846683	0.068010435	0.010926561	-0.00702362	-0.108196825	0.015160841	0.028756307	-0.0056278934	0.003161151	-0.023858158	-0.1077083	0.021039804	-0.00456071	-0.0065391283	-0.035833184	0.021681726	0.1423599	-0.081732064	0.007279109	-0.043502234	-0.092639074	0.007164443	-0.025381792	0.019784302	-0.06702751	0.04116778	0.040936857	-0.1677016	0.1543075	-0.024154358	0.06483357	0.12764685	0.04773625	0.061222915	0.012204804	-0.087319896	-0.08386555	-0.038791735	-0.004095803	-0.07316697	-0.02930824	0.080285445	0.025779175	0.04123901	-0.086091965	0.038865514	-0.0751824	-0.0011572652	0.16233651	0.072809614	0.0017644401	0.046507828	-0.06298535	-0.09131028	-0.12949818	0.143583	-0.059840783	0.0804267	0.0420594	-0.13278577	0.07082585	0.05544968	-0.03892833	0.07359784	0.06568882	-0.09628553	-0.10892645	0.0041705426	-0.016064148	0.06674352	-0.017707847	-0.033408828	0.061574504	-0.0056938767	0.11451588	-0.035479713	0.050432317	-0.039621126	0.019315964	0.0029840316	-0.030815924	0.07916315	-0.09254831	0.04323724	0.006354847	0.120213635	0.09769619	-0.12997004	-0.18090779	-0.01220944	0.00899934	-0.10085575	-0.0064986167	0.003401094	0.013946137	0.027579574	0.12766781	-0.05937516	-0.04440527	-0.029554976	0.11795689	-0.028942268	-0.03991468	0.038492788	0.067100294	-0.03482381	-0.00788359	-0.08220902	-0.06958584	-0.01669589	-0.057499785	0.12137689	0.039061107	-0.039448414	0.06473962	-0.06330574	-0.013346768	-0.017661056	-0.16253349	-0.002912995	-0.11366012	0.049511205	-0.105832234	-0.03567261	-0.0015804288	0.022118459	-0.09230622	0.011841529	-0.081794426	-0.02665345	-0.012385405	0.044644706	0.046465486	0.025284113	0.03868064	-0.09559595	-0.16100289	-0.08560258	0.04284321	0.04386901	-0.09040945	-0.16712719	0.03167077	0.14720707	0.00027042525	-0.034526706	0.00035799723	-0.01599698	-0.02565179	-0.042710006	-0.0706982	0.03116013	-0.083011314	0.098991714	-0.09952146	0.083833	-0.06584109	-0.04877511	-0.0063771647	-0.10961328	-0.0019326537	-0.026045116	-0.027604684	0.01820065	-0.0479718	0.10510441	-0.0044496614	0.1319005	0.10454072	0.00047396892	0.06440292	0.038959857	-0.004248445	0.13872442	0.095491536	-0.0918636	-0.0474867	0.00045039883	-0.017496906	-0.13757621	0.09223183	-0.011678526	-0.08436087	0.0018651144	-0.11724384	0.012636213	-0.04377727	-0.08412631	-0.069125384	-0.020799793	0.10006998	-0.019144118	-0.0051302034	-0.02278458	-0.0024444296	0.06721098	0.1706748	-0.042780317	0.00653105	-0.1539445	-0.061712958	0.108846605	-0.001694285	-0.08513874	-0.0053234086	-0.15260155	-0.028115511	0.051573735	-0.1536063	-0.09798629	-0.053381566	0.11944793	-0.11090386	0.042196155	0.13389562	0.12040337	0.043147396	-0.06610886	-0.031952575	0.014935355	0.068941854	0.020251378	-0.055693068	-0.041958988	-0.057156514	-0.107444905	0.10482861	0.038078997	0.025424348	0.015031343	0.0039015943	0.029127838	-0.025280714	-0.026508695	0.017482258	-0.045501772	0.0020779066	0.040859163	-0.057310782	0.026920805	0.057329327	-0.03759066	0.005231756	0.042480897	-0.19950809	-0.02724124	-0.05394279	0.06463239	-0.08001816	-0.012168573	0.011223298	-0.026595656	0.003038402	-0.112146355	0.0387004	0.01975204	0.15640366	-0.025551727	0.010483376	0.037978128	-0.01989326	0.046975207	-0.06306628	0.048617028	0.082021974	0.06977698	0.061620668	-0.051369	0.0436035	0.104613915	-0.06373433	0.024737429	0.0031685387	0.07464074	0.04569291	-0.065219514	0.015861014	0.103720255	0.030489799	0.004871691	-0.012648982	0.14287782	0.18852903	-0.061018225	0.05352226	-0.15304998	-0.04331972	0.031685803	-0.13739613	0.07282867	0.07284	-0.0450515	-0.081505425	0.038615823	0.043041863	-0.003435717	-0.054868754	0.054735336	-0.036833845	-0.12957221	-0.096751936	0.0069913706	-0.10791872	-0.04362788	0.107441954	-0.11613537	0.070607364	0.17040421	-0.0023976718	-0.03924313	-0.18034644	-0.053116146	0.02607473	-0.059172407	-0.011801064	-0.036098488	-0.052615285	-0.07203907	0.1026157	-0.007637948	-0.00818247	0.025500976	-0.12530586	-0.041320384	-0.0697562	-0.02430279	0.11345603	-0.07752541	-0.10696078	-0.0955931	-0.000111828784	0.021035137	0.016985562	-0.04863458	0.1114655	0.053170882	-0.056629058	-0.09773649	-0.012457915	0.0013956195	0.015458153	-0.07051359	-0.016660538	0.013361921	-0.031736434	-0.03338677	-0.04943357	0.017979996	-0.14152557	0.0650544	0.053547494	0.122868285	0.025680464	0.12627526	-0.06325844	0.06060742	-0.10070212	-0.01821792	0.08150532	-0.0023300848	0.048977185	-0.003844139	0.065425724	0.048792012	-0.01818796	0.01644454	0.030519694	0.03175234	0.058164567	0.038402475	0.014057689	0.16622397	0.054986883	-0.0006201287	-0.019474758	0.013970966	0.0004208113	-0.09965836	0.055575665	-0.094508536	0.07270878	0.014697235	0.1123086	-0.013279125	-0.023971498	-0.0963477	-0.105567664	-0.106400035	-0.016157586	0.017691417	0.04711409	-0.027226688	-0.030520352	-0.010330097	0.039323393	0.013937712	-0.055795092	-0.08378513	-0.043586195	0.01454464	-0.1197585	-0.06413634	0.10143564	-0.019241977	0.10194387	0.054887094	0.057891592	0.089747764	-0.031027537	0.09953281	0.0526619	-0.06766413	-0.032540582	-0.0014813782	-0.00670454	-0.083602846	-0.05582712	0.0014594796	-0.05135229	0.017402641	0.018440533	0.027789103	-0.035749584	0.046173304	0.002348203	0.09294211	0.046150733	0.00091053295	0.017167147	-0.0619454	0.03128557	0.030741481	-0.10237554	-0.012428057	0.115735024	-0.029368186	-0.099523224	0.027022112	-0.05185491	0.0007745687	-0.046807766	0.02933698	-0.063016385	-0.018389495	0.06293608	0.15223828	0.13674876	-0.09970671	-0.016751347	0.05221356	-0.00051763747	0.060937244	0.0038689182	0.08986969	0.08893095	-0.019479578	-0.035008654	0.0866811	-0.20327832	-0.051640913	-0.032379556	-0.0634629	-0.033501606	0.055083647	0.1265068	0.051531672	0.082497895	-0.059746042	0.023035482	-0.160599	-0.07812391	-0.14556494	-0.14205053	-0.056606922	0.08802742	-0.032843314	-0.060469728	-0.04072151	0.020376718	-0.06508376	0.09061989	0.16675845	0.0381534	0.052075565	-0.0142933205	-0.09795911	-0.026470393	-0.015931439	0.089265026	-0.063635476	-0.120392814	0.03950572	-0.021123953	0.02198069	-0.06208634	-0.026461579	-0.04375189	0.08107665	-0.03403194	-0.024932409	-0.044001248	0.016719693	-0.023949672	-0.005148151	-0.049558572	-0.0687918	0.079530105	0.045736935	-0.039437234	-0.0054868395	0.049020745	0.037247248	-0.082376584	-0.02949133	0.058668025	-0.07392795	-0.14879045	0.10772792	0.04617933	0.016004747	0.029899297	0.01802824	-0.10054876	0.044143137	0.008677454	-0.017226353	-0.02440744	0.037895083	0.10548842	-0.06982995	-0.1561874	0.006953001	-0.046312507	-0.0647329	-0.07857784	-0.003545905	0.13473749	0.054108255	-0.03734466	-0.06878212	-0.015269425	-0.054685023	0.023378571	0.07044639	-0.023649186	-0.04274995	0.0027933437	-0.09064933	0.07692707	-0.07100853	-0.16472344	0.110762134	0.06143324	-0.05005567	-0.19235644	0.02636655	0.031726208	0.08593319	-0.0034276247	0.056217898	-0.08648417	-0.001552959	0.03927518	-0.058449525	0.037307203	0.025911208	-0.14230482	0.14322785	-0.027152728	-0.039414387	-0.13516925	-0.03628642	0.05268323	0.076047525	-0.07887023	-0.005224748	-0.04438014	0.086707845	-0.10963385	0.0057232287	-0.022609109	0.030572826	-0.0030902477	-0.07951001	-0.077101186	0.08771112	0.00015870645	-0.0018416165	-0.0029759773	0.012718093	0.10780919	-0.02408544	-0.03187039	0.046468407	-0.07605056	0.03357864	-0.0061997287	-0.025765305	0.11538889	-0.044309385	-0.1208281	0.0023512074	-0.004276696	-0.07479183	0.061081443	0.019854192	0.10941365	0.13868997	-0.041934524	-0.025976518	0.0053189374	0.052845526	-0.024673913	0.05876867	-0.0679056	0.067742884	-0.052936397	-0.0073825563	0.04064934	-0.16460222	-0.04167548	0.07807284	-0.006401703	-0.095099926	0.07885841	0.077589616	-0.118010156	0.07214175	0.030668562	0.030383067	-0.21440576	-0.075226754	0.016613353	0.052547783	-0.065504245	0.0007235503	0.052860703	-0.05715364	-0.056450363	-0.08958198	-0.12123914	-0.054653265	0.008526373	-0.086915225	0.04328528	-0.07183013	-0.040621642	0.04296074	-0.11830146	0.0322939	-0.14378867	-0.019135306	-0.10040691	0.03973039	0.03879776	0.03402291	0.041197628	-0.014645384	0.022291396	-0.009094956	-0.02865445	0.06489753	0.11903535	0.04699249	0.047117718	-0.0077432403	-0.14606468	-0.009880384	-0.034471143	0.124732114	-0.16265054	-0.0723929	0.12566021	-0.0009852576	0.117654786	-0.074394606	-0.0010176684	-0.0110346405	-0.024037719	-0.05193559	-0.07728595	-0.16986	0.1344507	-0.08259922	0.05373499	0.006247415	0.04861425	0.021193858	-0.040064484	0.020678792	0.12412683	0.0001914307	0.01885415	0.0022303541	0.03823911	-0.017452773	-0.036498945	0.045748036	0.036484007	0.07124646	0.025619576	-0.07010349	0.087484635	0.011800732	-0.027208785	-0.045572158	-0.12828425	0.054152396	0.008507697	-0.121683866	-0.019921558	0.0732457	0.018203627	0.04228416	-0.063866764	0.104073495	-0.12605956	0.010605439	0.0027556084	0.008393048	-0.04888033	-0.037095934	-0.12646867	0.031257104	-0.06328509	0.020251974	0.10874748	0.092635974	-0.015249456	0.03116344	0.046255264	0.00043056867	0.052670844	0.10076469	-0.15700471	-0.023314025	-0.089559644	-0.07883267	0.09408259	-0.09422695	-0.0504107	0.09517697	-0.07212061	-0.10895472	0.0075120674	0.03028244	0.081481606	-0.032638974	-0.00860132	-0.018093165	-0.15239935	0.009974524	0.10156519	0.03341506	-0.01001549	0.04020509	-0.11618898	0.0067881956	-0.036284473	0.027476573	-0.0011885371	0.018570038	-0.07775848	-0.03854612	-0.042200763	-0.10619959	-0.095559046	0.11859736	0.019451523	-0.022579473	0.082080096	-0.09035732	-0.061580583	-0.04072747	0.116235726	-0.10756244	0.049276486	0.026803989	-0.07234135	0.008612528	-0.07921103	-0.033313982	0.03218827	-0.0777266	0.028729899	0.0698454	0.1079618	-0.060066026	-0.040403377	0.12097306	0.020667251	0.090240985	0.005108581	0.031186357	-0.010676356	-0.042929277	-0.0030065493	0.067779526	0.021806287	-0.0012169952	-0.046202794	0.06148221	0.0017085985	0.090521246	-0.0015310309	0.013841494	0.08201762	0.015801406	0.027370287	-0.020910276	-0.042248495	-0.15819015	0.01439464	-0.0068838494	-0.066383384	0.006673044	0.0976109	-0.09480759	-0.093519874	0.049644202	-0.017410139	0.01128621	-0.11696005	0.042882606	0.0018501094	0.03652743	-0.054157857	-0.1420574	0.022763133	0.028868249	-0.020784996	0.0503899	0.015705308	-0.10830404	0.048416093	0.06661114	0.11346575	0.060754858	0.017616047	0.022286061	0.045798894	0.019897234	0.056267653	-0.088607	0.12643562	-0.13145366	-0.011574972	-0.12386289	0.02659848	0.011786365	-0.10731601	0.08973718	0.07320204	-0.018585168	-0.056888394	0.11333786	-0.07559691	0.0012556236	0.10848158	-0.024420021	-0.08986023	-0.07598929	0.1226067	-0.051239982	-0.056571245	-0.017436884	-0.014226669	0.08066082	-0.03518964	-0.08914878	0.15977988	0.09620132	0.04939853	-0.014612616	-0.040857695	-0.072796814	0.023520293	-0.020193566	-0.07483544	-0.02245816	-0.062497538	-0.036474656	-0.02844086	0.03613425	0.082030885	-0.044832006	0.13004208	-0.01656996	-0.1092262	0.06871229	0.13606316	-0.012098276	0.026417786	-0.054250788	0.05296456	0.15085316	0.027550466	0.04716292	-0.121226475	-0.11925261	-0.09567034	-0.057598047	0.016928457	0.08379221	0.06117325	0.023251	0.069096595	0.010332412	-0.023236193	-0.009596021	-0.010455377	0.106592745	-0.010585547	-0.06163723	0.035222817	0.052344613	-0.0024136538	-0.13465698	-0.0830374	-0.10159203	0.037482776	-0.013975408	0.013423821	-0.08282547	-0.0001903255	0.15418361	-0.018278407	0.00056444237	-0.050832175	-0.13940266	0.0017147708	-0.0073785875	0.101812966	-0.034656044	-0.09222002	-0.038328037	-0.08343251	-0.034696214	0.034937236	-0.030036282	-0.09721161	0.06628753	-0.0708732	0.00038634785	0.11038315	-0.02250185	0.015941538	-0.033029903	-0.008569226	-0.0118352175	-0.10504848	-0.055630296	0.046571173	0.100550115	-0.10694211	0.09391503	0.03199366	0.009088347	0.10340247	-0.0013138357	-0.1361863	-0.0059518456	-0.1003211	-0.0581096	0.017181044	-0.1001178	0.0022097656	0.03698625	0.011636853	0.038594514	-0.16494212	-0.0063374154	-0.022730265	-0.01879023	-0.038171876	0.013870152	0.15352187	-0.14235207	0.06322717	0.03946877	0.067832865	-0.10061233	-0.05666156	-0.13028784	-0.06884843	-0.073935986	0.029759942	0.009971013	-0.042213164	-0.047417507	0.014423094	0.03780609	0.009429678	-0.042367678	-0.0051577785	-0.17448209	0.027687205	-0.020314777	0.007842209	-0.021466624	-0.010687375	-0.10275985	0.053764883	0.03939255	0.16766317	-0.10417258	-0.015817035	-0.0031398889	-0.041665737	0.10091463	0.084744215	0.10019066	0.046694297	0.020152954	0.024682838	-0.029877963	-0.025913412	0.04418439	0.03743564	0.06047733	-0.011472747	0.014636124	0.041262075	0.014222123	-0.10428527	-0.05564329	0.024429996	-0.011252217	0.13650875	-0.013154464	0.0033128918	-0.056228884	-0.012109445	-0.10930038	-0.04377977	-0.008859817	-0.085722156	0.034889355	0.05960661	0.026420586	0.09689534	-0.22758527	-0.106101006	-0.046011064	-0.03184504	-0.05473809	-0.04295018	0.05915391	-0.2566903	0.08387813	0.06070841	0.031452194	-0.015526196	-0.03128392	0.11832536	0.006129809	0.037615687	0.0118581215	-0.037670534	-0.05101112	0.09102078	-0.01526224	-0.17660111	0.08306716	0.03204132	0.016369035	-0.1261299	0.086312845	-0.06371366	-0.012980138	-0.11069726	-0.025218127	-0.032205097	-0.038312387	0.006344376	0.09170124	0.030305328	-0.005297185	-0.061888468	0.059943024	-0.16612919	-0.14364976	0.09119133	-0.11921163	-0.076215684	0.008903105	0.024980541	-0.026017163	0.060171124	-0.0041409694	-0.025478413	-0.034078777	0.018125115	0.047694035	-0.053235564	-0.015218787	0.061022185	-0.11204299	0.11186432	-0.05818605	0.01150592	0.022047602	0.045779485	0.05291364	-0.009382679	0.034147773	-0.0049364856	0.052518573	-0.040648647	-0.11492802	-0.070695035	-0.041228756	0.011869656	0.109454036	-0.040212706	-0.10816226	-0.032808125	-0.035334975	0.031624157	-0.047023464	-0.02887082	0.028139474	0.0013257735	-0.08462127	0.025152216	0.058190815	-0.1824876	-0.10596435	-0.019325506	-0.08702959	-0.0905575	-0.14222378	0.039297212	-0.016055383	-0.094395556	0.010369432	0.052226894	-0.0065880404	0.03272435	-0.019044679	-0.113781266	0.015977789	-0.23017079	0.111807935	0.18918444	0.005541777	0.049778175	-0.08130188	-0.04704458	-0.08039442	0.03898696	-0.08040006	0.03924173	-0.087778084	-0.0034368027	0.06938133	-0.12972258	0.012646623	-0.04770555	0.001743234	-0.022487756	-0.08199738	0.0034661116	0.067470476	-0.012892368	0.10745422	-0.07321581	-0.048331086	-0.057652876	-0.009267737	-0.12154199	-0.06426815	0.036883228	-0.0077264938	-0.08149103	-0.07973856	0.02438952	-0.08403583	0.007528998	0.035875905	0.116210125	-0.02234421	-0.0651182	-0.11878962	-0.0878035	-0.040294647	0.025355626	0.048858207	-0.037745148	0.06744726	0.03415465	-0.19594143	0.024327874	-0.15861858	0.059457455	-0.06744616	0.087353006	-0.17524688	0.071311474	-0.03147962	0.020786336	0.0424595	0.06711408	-0.07185192	0.0026759687	-0.089569524	-0.010606959	-0.12978664	-0.11837707	0.021090861	-0.04988984	0.059546765	0.047445524	-0.121763155	0.0025213188	-0.035729244	-0.075629584	0.057551857	-0.008634185	-0.08688781	-0.012787889	-0.0093267	0.023170788	0.16197468	-0.068242826	0.15057643	-0.110535964	0.1457965	-0.04460783	0.08654632	0.009969991	-0.025740257	0.020635953	-0.0048341393	0.009323605	-0.08328338	0.07277946	-0.04163691	-0.04643278	-0.042769462	-0.057366688	-0.04268382	-0.07488797	0.038239006	-0.039380055	0.024782335	0.021286774	-0.015921133	-0.07549229	0.028827295	0.114017986	-0.18763015	0.022944277	0.038158014	-0.13079597	0.021309499	-0.03264385	-0.072509706	0.06709283	0.06270408	0.044055536	-0.0740162	-0.09852523	-0.020054823	0.04062322	0.047017794	0.017128618	0.074162796	0.06468155	-0.0057369256	0.013243144	-0.10861945	0.08756938	0.029701946	0.008626998	-0.05606204	0.009650314	-0.027258351	-0.030471556	-0.008533275	-0.3300734	-0.65358174	-0.63173896	-0.82238847	-0.44317847	-0.47431344	-0.040397406	-0.1821077	0.4189404	-0.44582865	-0.102299556	-0.5379024	-0.6848472	-0.2351447	-0.36558902	0.06907376	0.5267105	-0.5018967	-1.016184	-0.5864632	-0.21341337	-0.22744197	0.11756682	0.012048073	-0.09553449	-0.041125245	0.32795104	-0.33294946	0.5176015	-0.6220804	-0.28298044	0.42287177	0.4385356	0.6875779	0.4671138	1.3079978	1.4890944	0.38787788	0.4156658	0.30532858	0.38172486	1.1787597	0.49680176	0.50518215	0.48566744	0.2635679	0.47964418	0.706398	0.5520642	0.94417447	0.9888661	0.5474386	0.3477494	0.5840534	0.36675236	0.24705298	0.6263533	0.38554546	0.3624613	0.3850485	0.46115366	0.5344878	0.4588433	0.8444566	0.9873261	1.0317322	0.89725196	1.1905025	1.1311079	0.76631844	0.8407291	0.9044453	0.78425646	0.8572708	1.0013769	0.88656086	1.0642254	1.1219532	1.0645802	0.98309344	0.75612503	0.96985364	1.0386215	1.3002431	0.9245485	0.95333314	0.91759616	0.7689901	0.9001488	0.8836693	0.9043062	1.0810522	0.8345449	1.0127286	1.0645458	-0.055701435	-0.13848415	-0.18877843	-0.19012024	-0.072070785	-0.32194227	-0.20100702	-0.20756212	-0.109242246	-0.591157	-0.06653917	-0.23143682	-0.10339612	-0.087235264	-0.37417856	-0.35445893	0.008223748	0.103955425	-0.15486616	-0.11212859	-0.24976319	-0.113199726	-0.12809017	-0.1739778	0.07003162	-0.102432005	-0.028762087	-0.11415376	-0.3326912	-0.022820964	-0.026005737	-0.3400676	-0.0492398	-0.016748663	0.03751622	-0.061881427	0.031368364	-0.0021398922	0.038876977	0.03662072	-0.07787544	0.01771907	-0.019164126	0.12697667	-0.047735542	0.007299111	0.058329824	0.06006064	0.025784511	0.008901486	-0.044914342	0.088704206	-0.09587981	0.032823205	-0.053572536	0.062271506	-0.010269302	0.04342142	-0.005779116	0.07935271	0.026851118	0.030846033	0.003485541	-0.033990677	-0.012424292	0.004198094	0.075275	-0.032045316	-0.034288164	0.03768456	-0.075986154	-0.07483571	0.0852702	-0.02776024	0.034728885	-0.032045018	-0.044077	-0.04772206	-0.04648344	-0.052563343	0.0460637	-0.059319478	-0.0128893545	-0.036776207	0.019597232	-0.062387664	0.010304107	0.08628595	-0.065054215	0.0013924236	-0.0012297328	-0.013990972	0.12597704	-0.11154222	-0.07077586	0.025243632	0.018260024	-0.01726702	-0.019493835	-0.02877797	-0.07520956	0.03948998	-0.033916842	-0.025401806	-0.057969213	0.022976857	-0.02066736	0.019563211	0.09911939	0.021741526	-0.017254788	0.018409774	0.02649652	-0.03667115	-0.0027071547	0.03409918	0.02004365	0.013041307	-0.07189809	0.045217752	0.06956817	-0.008490561	-0.067058705	-0.072525956	0.029048173	-0.07257403	0.033458136	-0.055044938	-0.015360455	0.015031787	-0.020294461	0.014429762	0.004368454	-0.0373137	-0.06626415	-0.0053170826	-0.043206763	-0.11747373	-0.05750328	0.020858854	0.039965168	0.012330542	-0.028755348	-0.006302558	-0.062656894	0.013893866	0.03780266	0.024715133	-0.1128742	-0.012777599	-0.009274654	0.06429621	0.1141295	0.00041442874	0.023432916	-0.008496357	-0.020947803	-0.07954711	0.031051768	0.018330295	0.13635783	-0.08883066	-0.04232507	0.05359489	0.045511115	-0.037735865	0.0926724	0.02798427	-0.05264442	-0.014945622	-0.02090554	0.04915289	0.04717997	-0.029429082	-0.012299029	0.0156130195	0.02886083	-0.020627756	0.006725354	0.05692257	-0.056358404	0.011042287	-0.0040760213	-0.013380125	0.018340321	0.04968563	-0.041387897	-0.026908739	-0.036569554	-0.050200578	0.05093085	-0.014830926	0.036102172	-0.024592828	-0.011484387	-0.028671961	0.039279077	0.1195604	-0.07238107	-0.044353697	0.042599626	-0.04052283	0.02348798	0.07823621	-0.032305416	-0.069844134	0.053236272	-0.005023482	0.06601177	-0.06762644	-0.036516603	-0.03825092	0.00217955	-0.015292096	-0.107321545	0.024227824	-0.050590433	0.056212403	-0.03749004	-0.04979943	0.0273728	-0.108169034	-0.04697348	0.014761288	0.0875285	0.03081412	0.053159982	0.008849574	0.0319703	0.00054455554	-0.004099297	0.031298153	-0.00520506	-0.029452195	-0.03640853	0.02602719	0.051417403	0.04124811	-0.010322998	-0.018695492	-0.027026229	0.052918192	-0.039244976	0.094602756	-0.0030387705	0.023856618	0.039004594	0.099209145	0.012981383	-0.020503465	-0.039755072	0.013006898	0.008879468	0.03686973	0.049918152	0.07097309	0.03523416	0.0984651	-0.001574234	-0.06328174	0.016787896	0.07815766	-0.018185914	0.05953503	0.038477715	0.046584517	-0.05330911	0.0046345936	-0.009490878	-0.056624465	-0.0004563477	0.031879652	0.04629874	-0.062821314	0.041509077	0.031722628	0.12903275	-0.02696707	-0.020729464	-0.028406974	-0.0016890544	-0.05124514	0.022380946	0.044332147	0.017246915	-0.016851574	0.038973413	0.048858255	-0.05022489	0.04278043	0.016376248	0.010940051	0.0035989783	-0.11270451	0.012392141	0.023313688	-0.015973702	-0.027911609	-0.06720593	0.013696683	0.02909447	-0.009896458	0.09323341	-0.036619756	0.073604554	0.053179182	-0.022306904	-0.02263592	-0.07862743	0.04736389	0.027165977	-0.05411843	0.023219807	0.028623948	-0.008909111	-0.083698355	-0.007885315	-0.07350044	0.06721329	-0.018084597	0.0027223981	-0.018052122	0.011403435	-0.030228693	-0.04992962	-0.023720589	0.015332418	-0.013046554	0.08260286	0.06208338	0.019165717	0.018651363	-0.12406877	0.12064757	0.009614786	0.04066057	0.049297538	-0.034769453	0.046535444	-0.031209344	0.023058215	0.07759856	-0.05483768	-0.05496194	-0.013316786	-0.048606344	-0.0023431387	0.0030601483	0.025405709	0.03688127	-0.039497934	0.01204566	-0.10666518	0.017460149	0.07073292	0.0015333042	-0.03646946	0.028284784	0.06473322	0.09936238	-0.010882426	-0.030897904	-0.008219983	0.019516995	0.028670708	-0.08425001	0.1139261	0.057753555	-0.068410486	0.10991325	0.040045474	0.007174705	-0.09872331	-0.10698896	-0.064403616	0.112260625	-0.011753482	-0.012506902	-0.004881122	-0.058687206	0.037655056	-0.07946474	-0.00069111853	-0.031052748	-0.062429696	0.026870431	-0.12707745	-0.051379107	0.037572972	0.010387822	-0.030210579	-0.010786449	-0.0298808	-0.007915482	0.028346058	0.0476753	0.030368418	0.05662153	0.03516507	0.032322586	-0.01006247	-0.02620053	0.06308344	-0.013699103	-0.106263846	0.036404982	0.013224838	-0.01113137	0.0006807697	0.026970226	0.07576913	-0.07840064	-0.0038745329	0.05739706	-0.0013693406	-0.042830158	0.05946593	-0.032059174	-0.067299046	-0.065603174	0.0045101005	0.06512567	0.0307019	0.017468981	-0.013096976	-0.012989269	0.030371277	-0.059833396	0.08737296	0.047791664	-0.09336763	-0.0743595	0.037578836	0.019471223	-0.03238876	-0.028825376	-0.09642432	-0.013177678	0.019378077	0.047181893	0.038955435	-0.03303697	-0.05062503	-0.018263275	0.02861224	-0.0270202	-0.024559211	-0.08850936	-0.056857053	0.06334241	0.06446497	-0.053999607	0.04851039	0.020815805	-0.055370916	0.052353203	-0.06604554	-0.023784189	0.05347973	0.04380244	0.02023174	-0.01806782	0.012045171	0.10165495	0.028696775	0.07035136	0.09057517	-0.043542713	-0.057707828	0.011145522	0.07604228	-0.022484023	0.0031369207	0.060946763	0.0022150278	-0.009936997	0.0068208147	-0.06616391	0.05987818	-0.077337675	-0.0396343	-0.055921964	0.03969613	0.095716745	-0.058210988	0.029998168	-0.060534194	-0.03895689	0.033595193	-0.05890131	0.08893505	-0.034756154	-0.061113797	-0.033137664	-0.10674272	-0.0049641402	0.01635695	-0.117272705	-0.06660459	-0.022848234	0.058110066	0.039951995	-0.16752964	-0.06455569	-0.018491087	0.055116307	-0.077551395	-0.03412906	-0.018631697	0.035456195	0.07666563	-0.0042590513	-0.0148367295	0.023077605	-0.05940828	-0.032866403	0.01379142	-0.005922666	0.04716239	0.07142765	0.0013036217	0.033731934	-0.0023161222	-0.004123414	-0.0019578945	-0.0075379154	-0.014855234	-0.03190266	-0.101851866	-0.05442243	0.060622606	-0.014437541	-0.06995513	0.0399777	0.09973839	0.06261903	-0.05050982	-0.07739586	0.03149679	-0.05546345	0.0132453265	-0.028640041	-0.020649444	0.04948747	0.020955555	-0.0085410625	-0.037864197	0.006108295	-0.01755977	0.026061114	0.0065874	-0.18718304	0.078619316	-0.05156968	-0.055907454	-0.14017917	0.009223728	-0.04325187	-0.035561543	0.17007199	0.032350175	-0.14492096	0.10515459	0.005796645	-0.013194463	0.05646733	0.015265872	-0.06668116	-0.034542155	0.009135007	0.071930364	0.09298101	-0.046076667	0.030219402	0.030545399	-0.041891806	0.074348465	-0.013687278	0.10486005	-0.06871711	0.07904697	-0.097477205	0.12943417	0.074347265	0.0050601736	0.054124556	0.013534825	-0.0011605292	0.09647682	-0.098802015	-0.040350795	-0.0210883	0.11159502	-0.08592869	-0.009022447	0.07072764	0.038046144	0.023822691	0.030847868	-0.09869751	-0.1278694	0.043910716	0.091910966	-0.061019983	-0.010772623	-0.11624729	0.08036048	-0.1099973	-0.050776016	-0.04174022	-0.06872719	0.09713076	-0.015391636	0.03253855	-0.027601337	0.031105345	0.014364497	0.035295513	-0.02947888	0.076541476	-0.032405704	-0.030016351	-0.06618614	-0.026295383	-0.05465252	0.12706693	-0.006009452	-0.053903487	-0.07084678	-0.012852444	-0.089970045	-0.073270194	-0.022379074	0.027011734	-0.09221487	-0.10605855	0.0183459	-0.06415702	-0.07360609	-0.024575975	-0.049696017	0.04680863	0.009912318	0.011078538	0.007342104	0.007112218	0.02141399	-0.009808041	-0.06741785	0.06512267	-0.10017346	-0.0018650435	-0.061495114	-0.07098601	-0.0118445465	0.022419611	-0.041150138	0.017154746	-0.019212408	-0.02000053	0.014055	0.041371003	-0.0054658162	0.0023018804	0.0009175466	-0.04998843	0.0056453003	-0.08092318	0.016289525	0.0011803935	0.07639225	-0.042556643	0.06894193	-0.040247437	-0.09491846	-0.06717841	-0.009766488	-0.010461915	-0.039072838	0.029262068	0.07582459	0.011322475	-0.040607806	-0.07917712	0.06348476	-0.049405336	0.05614942	-0.016219687	0.008378724	-0.052577604	-0.035726838	-0.0723009	0.06743855	0.042217746	-0.047824994	-0.0464715	-0.050942812	0.096237704	-0.063289486	0.111083806	-0.03729015	0.06255082	0.036744896	-0.010696833	0.03595822	-0.007336387	0.0171089	0.1042086	-0.053881433	0.011476517	-0.10289973	0.044694252	0.042106163	0.08647137	0.017808776	0.08883166	0.096427046	-0.031850662	0.035996787	-0.023367897	0.02220968	0.021785507	0.030756239	-0.105774045	0.058290612	-0.05891081	0.023453107	0.054276265	-0.018760998	0.06588691	-0.059808724	-0.04945083	0.07809223	-0.042362314	0.019384637	-0.012765188	-0.028638043	-0.038951218	0.0014560133	0.001962667	-0.025774732	-0.012638293	-0.038892917	-0.08905282	-0.021296514	-0.043285336	0.032760974	-0.18076183	0.023347924	0.053957522	-0.0026466965	0.011158027	0.05440759	-0.112187326	0.029786069	0.03644936	-0.037469897	0.038058523	-0.06157724	-0.03169786	-0.04466463	0.05997352	0.019471753	0.04219771	-0.032691896	-0.051341895	0.09054176	-0.058459576	0.0067706835	-0.02906235	0.118009016	0.013351995	0.031248504	0.041817863	0.1139643	0.024445413	-0.13627644	0.0275797	-0.022486378	0.0324408	0.056249358	0.01821841	0.09832186	-0.013948203	-0.03430006	-0.03579424	-0.023945171	0.089944005	-0.047350004	-0.0009705391	0.04546795	-0.03753817	-0.0003201578	0.0052838237	0.003163377	-0.035123575	0.013745709	-0.14309293	-0.071047656	-0.22411825	0.09609831	0.12977754	-0.022747012	-0.021724543	-0.09959707	-0.056321114	-0.092361026	0.0072859763	-0.01851677	0.09724403	-0.07365171	-0.020189937	-0.015937092	0.030974967	-0.020612644	-0.043777518	-0.0028089744	0.01065913	-0.07313843	0.020626377	0.011002191	0.0534003	-0.07885676	0.04563233	0.040222317	-0.111941725	0.021030853	-0.005920088	-0.025219161	0.018561978	0.020828389	0.056161817	0.05579949	0.04885308	0.013325542	0.061569344	-0.020022316	0.022819728	0.026808362	-0.017549979	0.009588143	-0.12907232	0.02504575	-0.046770204	0.021237176	-0.014822488	0.051674988	0.047599543	-0.010819047	-0.073126905	-0.15206343	0.092263624	0.04357544	0.000109440196	-0.012005144	0.057683606	-0.108542025	-0.007103747	-0.014964693	-0.027665209	0.056072112	0.026518613	-0.05856412	0.029924205	-0.018213952	0.039117973	-0.018549323	0.03569839	0.020483725	0.04177848	-0.010267742	0.03734053	-0.05381044	-0.062241066	0.086625755	-0.029055124	0.018851127	-0.100723706	0.00698032	-0.038802482	-0.047671277	0.0073366594	-0.0860962	0.024775963	0.052436173	0.05507765	0.035099678	0.057594724	0.014076113	-0.0019064529	0.016078796	0.09885416	-0.0117470985	0.0752228	0.041798588	0.08450934	0.009876036	0.035843913	0.09565706	-0.09150799	0.044216633	-0.008097668	-0.050470676	-0.03892766	0.07961202	-0.05986516	-0.047286477	-0.026837593	-0.1278119	0.025014741	-0.0074228575	0.0029622854	-0.052713275	0.07517347	-0.0054275417	0.0023836459	0.086563915	0.016215026	-0.06921927	-0.02253645	0.0598974	0.05074825	-0.100188226	-0.040789243	-0.07201912	-0.08759495	0.003016281	0.10597327	0.10370912	-0.01665099	0.052525308	0.0850133	-0.006395474	0.050591085	0.01842789	-0.12875807	0.0962287	0.052380793	0.08197316	-0.098111406	0.016812244	0.14834872	-0.02280625	-0.0027098884	-0.121810116	-0.13154529	0.034759194	-0.08142307	0.006003486	-0.06501144	0.10134492	0.013054409	0.007372319	0.05008656	0.07697362	0.062324602	0.06895384	0.12099227	0.030517096	-0.0013976084	0.08917136	0.01904786	0.048756924	-0.04600569	0.007737841	0.053157404	0.055453103	-0.060586926	-0.008084916	-0.053902764	-0.12504841	0.013423187	0.021293538	-0.011114573	-0.076592214	-0.04706778	-0.02092555	0.12354854	0.024958542	0.08199766	-0.063866146	0.029924132	0.061415575	0.015449983	-0.0770954	0.03286381	-0.10794006	-0.02260515	0.03141551	-0.09169114	-0.0355609	0.08306792	-0.023669941	-0.07610916	-0.07884234	-0.030806312	-0.00016429559	0.011075819	-0.11745784	0.06524806	0.01803033	0.006247767	-0.061892204	-0.05465265	0.05802211	0.013260406	-0.014956156	0.066104844	0.062315013	0.059969738	0.021501519	-0.07236259	-0.010424235	-0.05958651	-0.0118569555	0.05169363	-0.02644489	0.032762345	-0.039046686	0.05124625	0.14580095	0.02740207	-0.035769816	0.0032644407	-0.06825332	-0.013854027	-0.053960286	0.12017914	0.02647323	-0.005020663	0.036671944	-0.04761798	-0.020560155	-0.09473742	0.008476613	-0.06671354	0.04177918	-0.09369933	-0.056534164	0.04031376	0.016261237	-0.040268015	-0.038427852	0.10128778	0.010737069	0.048391137	-0.047343493	-0.048317503	-0.053477317	-0.08526234	0.00952561	0.06427136	-0.012519462	-0.10961101	-0.009550606	-0.029776592	-0.08318737	-0.082024574	0.04927766	-0.009316274	0.16137446	-0.0023453305	0.035768747	-0.11792082	0.017388007	0.021398643	-0.06437962	-0.03771418	-0.09909414	-0.04136208	0.057722036	0.004844413	0.005024913	0.100122906	0.048535183	-0.01762791	-0.023112347	-0.059421252	0.0040331013	0.04284954	-0.022776673	-0.026666563	0.045458682	0.048280563	-0.07400852	-0.019702015	0.07845797	-0.047163337	-0.015552736	0.013269996	0.038810413	-0.022201465	0.0687029	0.10139317	0.06145574	0.037146218	0.0016774297	0.024457498	0.07890726	0.14554514	0.05002905	0.074309096	-0.02113574	-0.04113283	0.013528249	-0.1219531	-0.036259215	0.0025285129	-0.02966677	0.0075904117	-0.027481299	0.08497463	-0.06593864	0.057686802	-0.0052067195	-0.10131338	0.034205936	0.04073962	0.08302071	-0.07511041	-0.029776236	-0.06170941	0.042175557	0.009539425	-0.036237825	0.06672663	-0.042557333	-0.019936949	0.05414915	0.058318935	-0.0012330248	-0.034786507	0.028884383	0.060316816	-0.076465376	0.029722633	0.046690896	0.05701087	0.058336467	-0.072333254	-0.0140236905	0.01229845	-0.10094252	0.0174584	0.07450038	-0.059106633	-0.07280049	-0.118925795	-0.046293847	-0.013606164	0.011087199	-0.073315986	0.02612479	0.051548928	-0.07134237	-0.08749165	0.0032286646	0.018206278	0.07255562	-0.03930242	0.0033721798	-0.055054378	0.011796395	-0.034619547	0.094685376	0.043783445	-0.055583317	0.023318019	0.033370335	-0.05674694	0.07285357	0.0036723763	0.0054750913	0.065590836	0.0036730033	0.045296542	0.04816485	-0.0271663	-0.09036473	0.035786342	0.09580351	0.032415483	-0.00057450746	0.093904294	-0.023112798	0.03300673	0.05087511	-0.045662165	0.00925381	-0.027237978	-0.049737956	0.035679724	-0.02575464	0.0135963475	0.0627027	0.034498885	0.080217026	-0.06018869	-0.09912507	-0.02747803	0.0063452544	0.0146342795	0.06367914	0.026094528	-0.010745572	-0.03594831	-0.023491263	0.111964025	0.011994145	-0.12243149	-0.03505845	-0.05089466	-0.00971128	0.09750504	0.05053512	-0.04691531	0.03486595	0.032975715	-0.053702194	-0.05110703	0.10049705	0.03302361	-0.027837085	0.05395691	-0.059777286	0.03648103	-0.01798711	-0.021111844	0.005662317	-0.007559182	0.033630762	0.03887689	-0.029002583	-0.11481682	-0.044642303	-0.063426666	-0.008742691	0.06893701	-0.021830298	-0.027864952	0.029793948	0.03265542	0.082941644	0.01611194	0.017255506	-0.056516808	0.0036448203	-0.03797246	0.04614038	-0.032836437	0.02882724	-0.047413725	0.049523707	0.0054280735	-0.06745231	0.006300216	-0.030022822	0.033165265	-0.04379084	0.033916563	0.015857864	-0.012590616	-0.0345142	0.0068579274	0.023991844	0.023119153	-0.0021348498	0.03192331	0.054187633	-0.05808631	-0.096591815	-0.014898201	0.07492792	-0.07000025	-0.08800062	0.02449349	0.020921247	-3.7954596e-05	0.086009726	0.030123191	-0.013206198	-0.040718477	-0.10327346	0.04651254	-0.00844867	-0.062914275	0.06862341	-0.04588056	-0.03571838	-0.068483256	0.049938228	0.05877954	-0.09020478	-0.04639532	-0.071170345	0.047277674	-0.06544889	-0.02587058	-0.007759388	-0.030887717	0.039358668	0.067599006	0.03109644	0.028841246	-0.020517288	0.021431074	0.017329218	-0.0042760125	-0.006644134	-0.006229786	-0.03402174	0.10236868	0.09229723	0.013769034	0.01700779	0.009950477	-0.08553683	-0.013535847	0.025112422	-0.122328	-0.07017157	-0.08394552	0.004529503	-0.047987085	0.06639068	0.007049554	0.108104736	0.013742168	-0.005381893	-0.063622296	-0.057466317	-0.054302987	0.11841055	0.0065039047	-0.074552104	0.0016630644	0.017751658	-0.029343195	-0.14490159	-0.053698596	0.04142074	0.032565586	0.020532595	0.004780627	-0.0104375435	-0.01162561	-0.07073188	-0.013572903	0.025450174	0.021222409	-0.002283145	0.10993251	-0.043730162	-0.0022267892	-0.027291343	-0.06526228	-0.061288178	-0.0037488632	-0.19760896	-0.032391816	-0.10885683	0.014350511	0.06467422	-0.034063272	-0.06647347	0.10473271	-0.014708986	-0.029007496	0.03307706	0.13374515	-0.033017896	0.07067837	-0.0022030978	-0.048247766	0.096581645	0.13976707	0.1309119	-0.0056319293	-0.043005582	-0.015427004	0.12181107	0.04204799	-0.015820747	-0.049948547	0.07622315	-0.050931938	0.022861825	-0.023963777	-0.034260824	-0.04274415	0.034151107	0.036414456	-0.124849275	-0.01586317	-0.033794485	0.012631592	0.013423663	0.011150737	-0.09962625	-0.047099993	-0.06420782	-0.13161668	0.16472074	0.10003075	0.04265384	0.03218848	0.020553777	0.00165959	0.11557163	-0.0019468504	0.010224095	-0.04327243	0.012564473	-0.01802128	0.1191197	-0.067202866	-0.07752281	-0.09075544	0.0017787135	-0.024669953	-0.021680513	0.013331609	-0.12145242	-0.009590086	0.15351781	0.028460613	-0.015895134	0.043142125	0.06394029	-0.062359605	-0.006624046	-0.0077783866	-0.062468335	-0.028235422	0.012535046	0.087953396	0.105537385	0.017164921	0.0036240127	0.033325523	-0.027169006	-0.016097616	-0.034399454	-0.036705077	-0.019282578	0.10356786	0.014660442	0.05227463	-0.067118526	-0.104884915	0.02118338	0.017187973	0.005296788	0.060384654	-0.012188242	0.011771139	-0.027474456	-0.0428623	0.032963518	-0.059153747	0.007146164	0.0033927776	-0.027631683	-0.081800885	-0.04380574	0.07426522	0.004139708	-0.021267466	0.08543658	0.06363645	-0.06649885	-0.11565632	0.036333904	0.081383966	-0.0677868	0.052478764	-0.046093743	-0.05180989	-0.0012074636	-0.00895649	-0.093987696	-0.011106181	-0.026024798	0.038314182	0.045036796	-0.046451706	0.032727145	-0.008583746	0.04430235	0.08052749	-0.021248225	-0.015293159	-0.0018079879	-0.0411432	-0.008005021	0.051699676	0.043089073	0.0077248253	-0.07388487	0.02423492	-0.045734193	0.07862727	-0.040975776	0.10764134	0.043618362	-0.10391269	-0.049564768	0.0002585979	-0.0072642043	0.14526573	-0.055611685	-0.029681105	-0.03574158	0.06339127	0.030053718	0.020407882	-0.02208298	0.04816017	-0.016972283	0.072120026	0.013431804	-0.05641668	-0.008306069	-0.053800493	0.08056204	0.01029824	0.025147278	-0.07679116	0.02449815	-0.01150537	-0.094780326	0.01603577	0.059352957	0.08885931	-0.013818529	-0.03415321	0.0360767	-0.01404096	0.031117838	0.0387368	-0.07042745	0.0039731045	0.06129901	0.022892596	0.094238974	0.0076040714	-0.067969635	0.046901785	0.02637362	-0.008359917	-0.028071824	-0.010231698	-0.15494159	0.03582179	0.030838773	0.023386704	-0.06939108	0.0075471257	-0.040559437	-0.031922974	-0.113967806	-0.02714243	-0.04539886	-0.046847004	-0.07393051	-0.07063173	0.007946612	-0.07123645	-0.044896007	-0.046397652	0.10887219	-0.03009303	0.06606578	-0.015105118	-0.03401779	0.020936035	0.09318938	-0.010825103	-0.055509154	-0.013924607	0.03279865	-0.044427924	0.008705899	0.090303004	0.018500606	-0.061719064	-0.028818224	0.013481266	0.045673404	0.036739357	-0.0063279173	-0.057224605	0.012549456	0.06875198	-0.01407147	0.023464043	-0.074820034	-0.013614892	0.09078921	0.00044331353	-0.040332183	0.11944104	0.03890016	-0.079981074	0.04256222	0.06669172	0.041481625	-0.005016121	0.033926636	-0.024374261	-0.00865662	0.051997766	-0.018238077	0.071248814	0.11638259	-0.014351282	0.0043268986	0.039918784	-0.051464997	-0.013429097	-0.053126544	0.037026953	-0.019624587	0.010636904	-0.009762132	-0.08568418	0.014666048	-0.0075588175	0.11133933	-0.04488164	-0.010273437	0.022863714	-0.014324884	0.08396699	0.025365088	0.07200645	-0.024085445	-0.07376199	0.102191895	0.018744897	-0.06437657	-0.034156326	0.04535145	-0.06801998	0.08686556	0.0011640436	-0.022187771	0.03775413	-0.1076385	0.0071606752	0.0034949146	-0.009572599	0.026377419	-0.042752285	-0.11613863	-0.007945217	-0.010163735	-0.035854284	-0.04686967	-0.13239436	0.0071747117	0.043370232	-0.03803784	0.041760337	-0.04102176	0.019349396	-0.029632423	-0.06651462	0.015864667	-0.08749394	-0.037944887	0.11859627	-0.0038487518	0.02481911	-0.0052819313	-0.0040996475	0.07757595	-0.024864199	-0.018697495	-0.11063326	-0.08306405	0.042046413	-0.03343899	0.056627247	0.04489403	-0.05395365	-0.05418665	0.05610105	-0.025597513	0.04817438	0.0712829	-0.05026634	-0.11672217	0.057395723	0.040398765	-0.039879885	0.058309715	-0.020703264	-0.038659323	0.035176978	-0.11113303	0.0032418577	0.019247424	-0.04562287	0.026962169	0.113655254	0.007931914	-0.037919533	0.054998565	-0.08888292	-0.02898451	0.053417835	0.0031820494	-0.06775792	0.1549695	0.062995926	0.02342843	-0.06377816	0.105090916	-0.09823978	0.033961426	-0.057130076	0.053787366	-0.0019758272	0.020722441	0.100894645	0.061057463	-0.070595786	-0.019842027	0.0530661	0.102398045	0.022408135	0.06547475	0.03446715	0.076061115	-0.04716274	0.0034699917	0.04615391	-0.048586186	0.047719534	0.060592093	-0.0155537715	-0.0014249395	0.013442079	-0.06005766	-0.020513153	-0.034966808	0.020168675	-0.025150994	-0.023041056	-0.018885862	0.06419231	-0.074545495	-0.08630965	0.06147255	0.005909331	0.014236102	-0.07553841	0.008582428	-0.14366665	0.0263644	0.098965526	-0.06999344	-0.004372014	-0.10349963	0.049746525	0.008865971	-0.056823518	0.07152071	-0.077979155	0.081115685	0.038826317	-0.10420565	-0.025291154	-0.027453596	0.013926578	-0.00088644086	-0.088196635	0.026336238	0.0034805294	0.011911284	0.035056103	0.033271905	-0.079127006	0.0045397542	0.020049026	0.008911388	0.076873966	0.07641011	-0.01245485	0.0463917	0.058397945	-0.03442159	0.0106570935	0.039706457	0.037011307	0.026479552	0.10291157	0.051561028	-0.01425025	-0.099914856	0.06065219	-0.019331798	0.075214945	-0.0075963875	-0.015856905	0.028776456	0.06270415	0.105096266	0.115753464	0.042786483	-0.07649234	-0.031136764	-0.0040953583	-0.031380434	-0.03568716	-0.010599725	0.050742134	0.046090882	-0.07190215	-0.077232815	-0.097633004	-0.06233065	0.011052534	0.038693924	-0.008259283	0.055322275	0.04733605	0.072389945	-0.09034414	0.023801329	-0.081138946	-0.036232278	0.09112033	0.03476457	0.020263974	0.028966516	-0.019362736	-0.022890478	-0.0650629	0.11417969	-0.16046363	0.06637493	-0.0075474316	0.08908453	0.13843751	-0.056756042	-0.04911692	-0.029758295	-0.058851708	0.16196862	0.016815597	-0.040305328	0.07799054	-0.0026158441	-0.12342248	0.08424192	-0.024142634	-0.0291059	-0.012984181	0.046454396	0.106890015	-0.024312066	0.014101479	-0.029270342	0.030625802	0.08201617	0.04842635	0.035053942	0.09476271	-0.04987702	0.014752484	0.042726245	-4.8737515e-05	0.0047636745	-0.03515973	-0.04649686	-0.039199278	-0.052628204	0.02892646	-0.038090076	0.018020554	0.038645454	-0.042729262	-0.061134264	-0.1232051	-0.036884677	-0.10561081	-0.05837182	-0.09596352	-0.04675768	0.0561001	-0.031161733	-0.02298074	0.0016194893	0.028704371	0.08022998	0.029101077	0.030888181	0.07074558	-0.09309019	-0.038830698	0.01996403	0.12624079	0.02816156	0.0015012606	-0.07617401	-0.033608943	-0.14717521	0.0427457	-0.026937036	0.07754731	-0.0016068266	0.048962235	-0.031787887	-0.0626118	0.021068653	-0.009035453	-0.02935347	0.032559708	0.036893092	0.0063845706	-0.12539454	-0.03126242	-0.011364826	-0.003843909	-0.0122701675	0.019019198	-0.09089067	-0.054882064	-0.095892705	0.06839429	0.020439817	0.0004694806	0.008075146	-0.042275965	-0.0058036083	-0.0013483103	-0.032440912	0.04847117	0.060556352	-0.056872323	-0.06385804	0.11740707	0.043153636	0.03081424	-0.059932586	0.012251121	0.083039686	-0.0050621764	-0.03962615	0.01073539	-0.048952926	0.06386597	-0.048727576	0.037446503	-0.19238496	-0.039037112	0.021014357	0.0033152436	0.039577905	0.117368825	0.04063358	-0.044307426	0.009475763	-0.047804996	-0.01631163	0.074202105	0.0013670326	-0.10845187	0.05243653	-0.014796541	0.057240408	0.03831447	0.0010931671	-0.026543636	0.023149375	-0.11894681	-0.118750826	-0.08871572	-0.024609884	-0.031666815	-0.040586323	-0.04139055	0.056942157	-0.017918892	-0.0029647332	0.106338926	0.07593614	0.028211445	-0.0680512	0.010029214	0.0006327914	0.048822477	0.033785522	0.07688288	0.049647294	0.022539113	0.016741848	-0.06070085	-0.10163388	0.100126006	-0.06465842	-0.0647752	0.123753056	0.124391034	0.063354656	-0.0015358807	0.0018517211	-0.03278649	0.0565521	-0.0025534115	0.04609731	0.040499482	0.03290505	0.009914232	0.0073259757	-0.04231213	0.020903105	-0.13288648	0.09869088	0.038933888	-0.032578714	0.001800676	-0.043099523	-0.038572326	0.023338197	-0.10803563	0.038073137	-0.08067716	0.046753578	-0.010236951	-0.0047760876	-0.0581708	-0.010944677	0.00043786634	-0.0012050442	0.010827288	0.014940009	0.019557334	0.026212698	-0.07448863	0.19123612	0.07220339	0.11508604	0.09644848	0.02766242	0.033393905	0.077826366	-0.007840233	-0.14640601	-0.01017564	-0.006301203	0.04395242	0.02760231	0.004555337	0.0052397577	-0.03583412	0.066681504	0.00046763968	0.0124009205	0.051860392	-0.019794723	-0.0017999171	0.09596476	-0.057175674	0.02311717	0.09362294	-0.0060524307	-0.022421373	-0.054463502	0.028007293	-0.06743498	-0.07034582	-0.03885721	-0.048242785	-0.09582136	-0.054142598	-0.05101151	-0.02553969	-0.07909762	0.034655746	0.024095835	0.044343587	-0.0054367157	-0.04551796	0.0144859785	-0.035846293	-0.02204515	0.021725833	-0.010081219	0.001857626	-0.006034102	-0.027921578	0.02886385	0.041370284	0.07423415	-0.0012805902	-0.012370868	0.03399302	-0.009692268	0.014753757	0.053320363	0.056477107	0.09860314	-0.07588152	0.017649785	-0.034452986	0.09508398	0.030204691	0.0047060386	-0.005705372	0.04669863	0.014692241	-0.019468784	0.05944205	0.07670948	0.0069475374	0.03173255	-0.055890374	0.012375037	-0.06713123	0.084541015	-0.036070984	-0.01680308	0.007084303	-0.004457565	0.017657315	0.027424082	-0.0008783826	-0.01590775	0.07679939	-0.032690443	-0.045281164	0.061281506	0.05713884	0.08711088	0.06779179	-0.073104344	-0.08922012	-0.07840851	-0.07912733	-0.06606957	0.0021688878	0.06505561	0.10342277	0.09914937	0.019852003	-0.029619921	-0.059878472	0.02657755	-0.0478515	-0.011498717	-0.074545555	-0.0028921808	0.02394517	0.007165632	0.048285775	-0.038533095	0.05698186	0.05886054	-0.069725804	0.024959857	0.09232186	0.041657224	0.04407412	-0.016583886	-0.046737738	0.044687267	0.02883369	-0.0044734264	-0.043904804	0.06031552	-0.05071549	-0.0052081444	-0.028861107	0.003073625	0.021321027	-0.008388417	0.006578487	0.006894584	-0.0702459	-0.060357872	0.087681204	0.06976994	-0.044413157	0.0329204	0.005613633	0.04195548	0.005873226	-0.043443494	-0.0067656282	-0.013668948	-0.0928806	0.06253671	-0.08499531	-0.023211781	-0.080451526	-0.037971407	0.05167367	0.030411463	0.040031955	0.030041503	0.06387858	-0.069112465	-0.061831284	0.10507061	0.007029526	0.04224229	-0.050639477	0.02534807	0.045239367	0.06652246	-0.10850143	0.024693746	0.03840533	-0.08453993	-0.02652697	-0.0640856	-0.04325845	-0.010719576	-0.060566697	-0.010343972	0.038554978	0.0637023	-0.0078144595	-0.025568487	0.03708082	-0.020269206	0.04016124	0.10764739	0.050516963	0.042126883	-0.029560307	0.044559054	-0.075661935	0.011593236	-0.012367967	0.052000966	-0.021920614	-0.03293155	-0.018190337	-0.0605767	-0.09746924	0.035031363	0.0323631	-0.029820204	-0.067975685	0.0033252072	-0.017907012	-0.012490465	0.07743164	0.034136903	-0.00089495775	-0.027418211	-0.10397907	-0.03298375	0.07656088	0.10468202	0.053530525	0.005308883	-0.011425074	0.0363247	-0.05798327	-0.06086054	-0.059565082	-0.074467614	0.018537315	0.021442385	-0.06451466	-0.043947678	-0.009682844	0.004414335	0.13183334	0.11788063	0.0143153025	-0.04695065	-0.065850064	-0.10691493	-0.023044541	-0.06960884	0.08886133	-0.0034932646	-0.048016194	-0.015135367	0.0116112	0.06045803	0.00066794886	0.0029123118	0.06300905	-0.0069751367	0.18778378	-0.049095977	-0.023239044	-0.07926852	-0.031437434	-0.09708427	0.07438973	0.05327416	0.07124488	0.013320446	0.042059623	-0.030281087	0.0015654967	-0.06963578	0.050037894	0.00024868088	0.034149595	0.005978163	0.014381225	0.026407758	0.0081196865	-0.00562514	-0.08269682	-0.055021837	0.019430768	-0.1125282	-0.018571712	-0.015017779	0.049974345	0.041461397	0.049822956	-0.05423645	-0.034426097	0.020268764	0.025704445	0.042214416	0.03830351	0.0002145277	0.008565757	0.0043395935	0.034809098	0.060266152	-0.027358076	0.0015679436	-0.065019555	0.021887653	0.08150901	0.03313732	-0.02238561	0.047371186	0.040483784	0.059590343	-0.014119853	0.0014653472	0.047056764	-0.024887688	-0.06106803	0.0075102644	-0.026118867	0.04246502	0.054175425	-0.033566967	0.01582293	0.036229994	0.011258746	-0.0468726	0.022466663	0.084177844	-0.048444245	0.106799096	0.030363536	0.009540808	0.010150422	0.043171477	0.00590466	0.04818969	-0.07532082	-0.036402885	0.011365852	-0.049772356	-0.07700081	-0.0054977345	-0.07041864	0.018945346	0.021364786	-0.015303969	-0.022179887	-0.094603054	-0.020109365	-0.0641953	-0.030642573	-0.095007055	-0.05667984	-0.038494516	-0.0261182	-0.03478312	0.046141922	0.036554594	0.10164229	-0.050602864	0.1043183	0.07465875	-0.064295925	0.06770421	-0.106525846	0.010934349	0.016124858	0.036829878	0.0029301574	-0.066616006	0.010554441	0.07383148	0.05173075	0.04483205	0.04042288	-0.04820976	0.039515104	0.039838627	0.09999012	-0.0016242566	0.00046039853	-0.04133627	0.006721138	0.024865562	0.06059147	0.062754385	0.017095385	-0.015064965	-0.030358266	0.061697762	0.068688996	0.04698807	0.075153016	0.06775042	0.0997614	0.014298222	-0.07492897	0.097077444	0.028171152	0.10966999	0.03184657	-0.05781263	-0.018856982	-0.021616556	-0.018390644	0.08250267	0.026363898	-0.020174263	0.027429732	-0.03323816	-0.020358836	-0.080754414	0.017164292	-0.026495703	0.042145558	0.075788006	0.07939399	-0.0729706	-0.15720825	-0.060529307	-0.009304304	0.027658606	-0.033827834	0.02119659	0.017776748	-0.02327892	-0.018443057	-0.040595446	-0.03146074	-0.058867916	-0.0034034285	-0.02778731	0.020160144	0.018783566	-0.02929643	-0.060287856	0.08987454	0.051856395	0.024573756	0.035157654	-0.003329722	-0.0043191426	-0.07549384	-0.056482974	0.033908933	0.08709351	-0.007228295	0.05009605	0.05026362	-0.06528588	-0.023646915	-0.01622867	0.041308228	0.05892183	-0.06671136	0.07606902	0.014045705	-0.054406095	0.052854475	0.048175957	0.010644865	0.05954136	-0.004255528	-0.004954737	0.010180058	0.014310375	0.04310091	0.07546702	0.058985006	0.077122085	0.013201758	-0.0015062151	0.018079674	-0.022876926	0.038026843	0.046376396	0.010084322	-0.0052269073	-0.101125516	0.028163122	0.11646647	-0.04170904	-0.00090083975	-0.058630858	-0.044041093	-0.012698581	0.0621107	0.019825071	0.018637354	-0.06879834	-0.045507308	0.04182483	0.07386351	0.020846844	-0.030790014	0.031421386	0.0068197367	-0.08134258	0.08131257	0.01510865	0.056283474	0.043706696	-0.083131656	-0.025773635	0.0097993575	-0.034781538	-0.030205155	-0.0051943636	0.01866076	0.030333059	0.042908467	0.05192657	-0.061182335	0.030750347	0.021406783	-0.03193479	0.0036165721	0.0871659	0.01343333	-0.1026838	-0.085749865	-0.008122383	0.007489112	0.04750938	-0.04989063	0.010073929	0.079779625	-0.017615583	-0.05153789	-0.053960998	0.0040389337	-0.052197985	-0.0036347597	0.010793893	-0.046295967	0.03248652	0.015131484	-0.013117847	0.054135043	0.03733593	-0.055934727	0.025339752	0.011618107	-0.01738284	-0.004296699	0.008275738	-0.052812148	-0.032900445	-0.035766996	-0.06394809	-0.0026771172	0.030034358	0.00057783077	0.061098572	-0.13323194	0.017704193	-0.022922501	0.030136565	0.0140552195	-0.015317652	-0.044922356	0.08003262	0.017510157	-0.020554638	0.021326752	0.029975276	0.038656108	-0.027577104	-0.07912651	0.06528488	-0.008358478	-0.041954078	-0.0065308744	-0.041832708	-0.017688058	-0.028251605	0.11378463	-0.03148167	-0.08545984	0.019974774	-0.07259384	0.058798354	0.0065201563	0.026132233	-0.004021133	-0.032754526	-0.003637422	-0.015494291	0.023314841	-0.07707937	-0.016200803	0.017245464	0.04848918	0.04289466	0.0012774405	0.06422422	-0.02045111	-0.021521462	-0.11526638	0.083086655	-0.023781603	0.08168744	-0.03930884	0.020551538	-0.021554621	-0.014741783	-0.10579971	-0.08907361	-0.07056571	0.0044809254	-0.057721723	-0.029535329	0.016398815	0.03436588	0.030240582	-0.058177456	-0.00033749253	-0.044706285	0.022120057	0.017827725	0.041277524	0.025333954	0.031451527	0.07042149	0.010647331	0.03595779	-0.033763427	0.010840468	-0.020955563	0.0041402713	0.027074749	-0.026342008	0.015877068	0.04422396	0.025911437	0.028200747	-0.05746945	-0.004888918	-8.5616826e-05	-0.07226499	0.011716588	-0.05558071	-0.015037079	0.0039376533	-0.04107228	0.0048382375	-0.033032376	0.06900271	-0.05736744	0.046340857	0.10808884	0.02420789	-0.048145045	0.09016053	-0.025480734	-0.05437864	0.019353556	-0.0145774335	-0.026979264	-0.040314913	-0.096844345	0.061461356	-0.03556296	0.05267876	0.083966665	-0.044201747	0.012362093	0.02143118	-0.015239075	0.024572546	-0.0043890337	-0.024434367	0.043893225	-0.007519217	-0.0049387305	0.012635395	-0.04991906	0.013836462	-0.029570596	-0.019824749	-0.02621342	0.109348185	-0.0210021	-0.012059002	-0.0024980397	0.082550645	0.034661334	0.03134497	0.0031445425	0.066836305	-0.0075017693	-0.02937188	-0.052992806	-0.046134338	-0.03231243	0.06414839	0.08163498	-0.01144721	0.013723429	0.03873763	0.03686304	-0.05297237	-0.011703389	-0.029992707	0.019012572	-0.06950093	0.05511714	0.0058791353	0.07070933	-0.06147131	0.031246917	0.082000405	0.012357357	0.03217495	0.02243484	-0.00509289	-0.005696425	0.0020744537	-0.0076090028	0.024103193	0.05951394	0.022544982	-0.09587044	0.016649477	0.019874228	0.012603963	-0.094262846	0.010865131	0.05754553	0.100325994	-0.0070194216	0.10027915	0.0057872697	0.014867164	-0.07359916	0.06890868	-0.08568701	0.08112474	-0.03999805	0.008744472	-0.09100192	0.14247409	-0.04435735	0.007983515	-0.10669471	0.06543744	0.09047199	-0.09737221	0.028238965	0.06713143	0.010479909	-0.027655862	-0.07724552	-0.010643115	0.02748422	0.036832534	-0.030125458	-0.06078678	-0.08959522	-0.07730121	0.06008092	-0.02536957	-0.0235813	0.00246767	-0.022281913	0.030420111	-0.021475809	-0.042686395	-0.014689939	-0.044259034	-0.06760256	0.05559023	0.003042533	0.020982794	0.10073896	0.020432074	0.04311419	-0.054457612	-0.05765681	-0.1043315	0.01865158	0.047750752	0.0088793915	0.057843484	0.005608633	-0.046459448	0.021606605	0.10539977	0.0960325	0.019807277	-0.034364063	0.054418154	-0.054258708	0.010668963	0.026344663	0.007960273	-0.011944893	-0.051968407	-0.052740533	-0.0013261508	-0.0893925	0.040017605	-0.008046736	-0.01802153	-0.02807097	0.064222045	0.051798828	-0.003551736	-0.11781823	0.013353218	0.00072669284	-0.029966401	-0.073575325	-0.08186233	-0.03310167	-0.077147946	-0.037150394	0.035481386	0.03878263	0.03919887	0.0032893305	0.021358222	-0.01630639	-0.04165154	-0.09226949	-0.0010901657	0.03084042	-0.06054759	0.009719054	0.036033947	-0.027978824	-0.05322133	0.024588564	0.02101791	-0.020694355	0.014051635	0.060059093	0.06770585	0.059821524	0.015157964	0.05240775	-0.056038797	0.020434681	0.023886114	0.0060086222	-0.025848005	-0.031038728	-0.048853405	-0.019577391	0.05238569	0.08025032	-0.0043384098	-0.009413172	-0.034967925	0.06587554	-0.029570766	-0.0013254447	0.06547174	-0.09932275	0.069643654	-0.014117419	0.06270987	-0.077720515	0.05022622	0.05535934	-0.01763815	-0.00601858	0.058963183	-0.04272933	-0.0031866042	0.038854603	0.12668644	0.056499477	-0.086611845	0.006524638	0.053129714	0.030921817	0.06926556	0.013841327	-0.005169842	-0.045173537	0.073168024	0.010102589	-0.033177685	-0.0037931232	0.021353876	0.0041754046	0.057271168	-0.035536285	0.059547354	-0.06607807	-0.048049644	0.032872017	-0.03721592	-0.017260991	-0.012688859	-0.0846615	-0.10211106	0.018993713	-0.01098504	0.01926606	-0.0472871	0.021933904	0.02277773	0.02923436	0.06365273	0.0087645715	0.0074767848	0.046867337	-0.03267263	-0.0713594	-0.03639557	0.028188998	-0.03681133	0.040101536	0.021650914	-0.10496336	-0.060683686	-0.07243579	0.021118985	-0.0049943817	0.10267512	-0.022814883	-0.026263675	-0.03422554	0.06767088	-0.0039704777	0.11311881	-0.041997474	0.071566075	0.029881757	0.02829432	-0.053454697	0.10195791	-0.06476986	-0.025899947	0.028761204	-0.040303823	0.059877053	-0.040793207	-0.05820303	0.013214071	-0.051108085	-0.06625248	0.031191895	-0.020422276	0.054921407	-0.0335302	0.053477947	-0.017337006	0.016459752	0.030480443	-0.118233405	0.009918745	0.05267514	-0.04139656	-0.08464698	-0.057006236	0.05098172	-0.034438755	0.06320471	0.010789722	-0.02794855	-0.06882433	-0.012870072	0.04079907	-0.081537016	-0.012323084	-0.0146841705	0.06576068	0.056888163	-0.023059988	0.088941105	0.011292093	0.12025465	0.026813038	-0.1330627	0.059262905	-0.04738098	0.080973804	-0.013167923	0.016029283	0.074377425	0.007210906	0.013180447	0.025686454	-0.052611522	0.019558292	-0.049065266	-0.06348337	0.0044453708	-0.026706096	-0.066222265	-0.07496103	-0.0030856822	-0.035424102	0.070358805	-0.05259453	0.11069198	-0.06395797	0.03622231	-0.04264231	0.07124637	0.060508706	-0.053653017	-0.04116161	-0.10868807	-0.02209657	0.04779114	0.036882423	-0.02672535	-0.047993135	0.059108846	0.05226958	-0.08658	-0.038963173	0.06318034	-0.085911505	0.05774844	0.056466583	-0.04445442	0.03693398	-0.063863724	-0.055722155	0.02473993	-0.048319872	0.042585287	-0.05715455	-0.020015063	0.032281008	-0.051165733	-0.010260851	-0.10901933	0.04429079	-0.07425333	-0.031480424	0.06697293	-0.028935196	0.08755222	-0.01703612	-0.03359215	0.031212091	0.03061924	0.03041116	-0.012621525	0.00557582	0.026704792	0.01183299	-0.09772497	0.057669908	0.0016985188	0.05672511	0.09243072	-0.06385546	-0.07693359	-0.065651715	-0.028361455	-0.06507349	-0.05517088	-0.03694846	0.015463498	0.084883705	0.024877435	0.025581352	0.06307909	-0.00072398054	-0.014103744	0.0185760